<DNNVoiceDetectorConfig> <SegmenterConfig> 3 250 50 150 50 3 50 500 500 </SegmenterConfig> <Nnet> <NumComponents> 11 <Components> <SpliceComponent> <InputDim> 23 <LeftContext> 10 <RightContext> 5 <ConstComponentDim> 0 </SpliceComponent> 
<AddShiftComponent> <ShiftVector>  [ 0.131043 0.1489915 0.1559929 0.1564844 0.154432 0.1509889 0.1476882 0.1411631 0.1325262 0.1295852 0.1227435 0.1167895 0.1158786 0.111461 0.1026873 0.09448409 0.08888576 0.06855405 0.01177819 0.0138846 0.01957313 0.0259376 0.03247006 0.117348 0.133198 0.1399434 0.1406791 0.1389378 0.1359106 0.1330174 0.1270311 0.1191545 0.1166627 0.1102037 0.104924 0.104337 0.1000605 0.09149399 0.08360404 0.07833 0.05876061 0.003598976 0.005998127 0.01208713 0.0189661 0.02660451 0.1038754 0.1176309 0.1240716 0.1251075 0.1236652 0.1210509 0.1185634 0.1131052 0.1059647 0.1039189 0.09783573 0.09321056 0.09294005 0.08879729 0.08043914 0.07286812 0.06792885 0.0491132 -0.004480813 -0.001766347 0.004721274 0.01211238 0.0208524 0.0905652 0.1022402 0.1083845 0.1096949 0.108536 0.1063399 0.1042723 0.09937733 0.09296586 0.09132093 0.08559721 0.0816163 0.08164699 0.07763413 0.06948463 0.0622337 0.05760969 0.03954255 -0.01248599 -0.009453197 -0.002593443 0.005277701 0.01513125 0.07744446 0.08705748 0.09288917 0.09449519 0.0936122 0.0918218 0.09015077 0.08579513 0.08010653 0.07886967 0.07351352 0.07016598 0.07048146 0.06658144 0.05864274 0.05170748 0.04740943 0.03007517 -0.02036915 -0.01702838 -0.009776734 -0.001435091 0.0095436 0.06449197 0.07206707 0.0776065 0.07948104 0.07888821 0.07749606 0.07620528 0.07232906 0.06737658 0.06652483 0.06153007 0.05880268 0.05939903 0.05565101 0.04789735 0.04127312 0.03730897 0.02069204 -0.02818581 -0.02454108 -0.01689311 -0.008085029 0.003994507 0.05173444 0.05725528 0.06245312 0.06463255 0.06433139 0.06335881 0.06241305 0.05903328 0.05477783 0.05429633 0.04967616 0.04754641 0.04837475 0.04478829 0.03721029 0.03090362 0.02728496 0.01139113 -0.03592581 -0.03198485 -0.02396264 -0.01467833 -0.00151646 0.03912769 0.04259086 0.0474585 0.04991763 0.04993389 0.04937912 0.04876685 0.0458976 0.04230558 0.04219959 0.03792852 0.0363785 0.03743946 0.0340105 0.02660892 0.02057814 0.01728553 0.002144153 -0.04360847 -0.03941292 -0.03101672 -0.02125139 -0.006989731 0.02671641 0.02818319 0.03267314 0.03537447 0.0357099 0.03558057 0.03531468 0.03289449 0.02995454 0.03019895 0.02626619 0.02527294 0.02658768 0.02331426 0.01609976 0.01036814 0.007360918 -0.007041823 -0.05125205 -0.04679327 -0.03806103 -0.02783644 -0.01245321 0.01438223 0.01386976 0.01801297 0.02096912 0.02164381 0.02192327 0.02192455 0.0199884 0.01770174 0.01828136 0.01465332 0.0142414 0.01582656 0.01267357 0.00565868 0.0001988981 -0.002524638 -0.01621195 -0.05884479 -0.0541214 -0.04505368 -0.03438196 -0.01791758 0.002184856 -0.0002908258 0.00349769 0.006718792 0.007759678 0.008427522 0.008684739 0.007220196 0.005538381 0.006446931 0.003133893 0.003310224 0.005112298 0.002091281 -0.004683731 -0.009880791 -0.0123259 -0.02533923 -0.06642484 -0.06145838 -0.05206859 -0.04093895 -0.02339168 -0.01001252 -0.01445141 -0.01101759 -0.00753154 -0.006124451 -0.005068225 -0.004555078 -0.005548006 -0.006624979 -0.005387494 -0.008385536 -0.007620956 -0.005601962 -0.008491011 -0.01502614 -0.01996048 -0.02212716 -0.03446651 -0.07400488 -0.06879535 -0.0590835 -0.04749595 -0.02886578 -0.02010767 -0.02658099 -0.02354985 -0.01984716 -0.01807085 -0.01666969 -0.01596767 -0.01647951 -0.01687016 -0.01536674 -0.01813952 -0.01687272 -0.01465317 -0.01745267 -0.02372099 -0.02834667 -0.03026021 -0.04205716 -0.0807505 -0.0753308 -0.06530907 -0.05330137 -0.03375149 -0.03060987 -0.03895815 -0.03600874 -0.03189352 -0.02969711 -0.02796857 -0.02704669 -0.0270055 -0.02655756 -0.02477403 -0.02745867 -0.02573904 -0.02328838 -0.02593397 -0.031921 -0.03626675 -0.03790351 -0.04923814 -0.08726461 -0.08168089 -0.07135367 -0.05895762 -0.03858295 -0.04139603 -0.05128461 -0.04824424 -0.04374309 -0.0410931 -0.03908274 -0.03791022 -0.03734618 -0.03597552 -0.03384229 -0.03648731 -0.03432914 -0.03166104 -0.03416425 -0.0398835 -0.04397894 -0.04535721 -0.05620519 -0.09348333 -0.0877639 -0.07712848 -0.06432609 -0.0431887 -0.05194392 -0.06303281 -0.05981335 -0.05489542 -0.05186596 -0.04956358 -0.0481539 -0.04708073 -0.04473486 -0.04230107 -0.04494631 -0.04236353 -0.03950143 -0.04183911 -0.04729725 -0.05116405 -0.05232369 -0.06271263 -0.09919392 -0.09332394 -0.0824154 -0.06923067 -0.0473742 ]
</AddShiftComponent> 
<RescaleComponent> <ScaleVector>  [ 0.1970625 0.1857601 0.1845769 0.1861895 0.1883924 0.1953943 0.2035369 0.2108034 0.2161274 0.2205901 0.2248454 0.2296864 0.2328232 0.2330551 0.23261 0.2349069 0.2339972 0.2341404 0.2108655 0.2164605 0.2217779 0.2253872 0.2349455 0.1976352 0.1863765 0.1852006 0.186802 0.1889893 0.1959977 0.2041566 0.2114322 0.2167488 0.2212049 0.2254512 0.2302836 0.2334025 0.2336113 0.2331411 0.2354282 0.2344883 0.2345707 0.2110582 0.2166524 0.2219569 0.2255614 0.2350951 0.1982141 0.1870016 0.1858339 0.1874226 0.1895937 0.1966081 0.2047845 0.2120696 0.2173779 0.2218272 0.2260622 0.2308874 0.2339879 0.2341738 0.2336784 0.2359543 0.2349838 0.2350058 0.2112534 0.2168466 0.2221391 0.2257375 0.2352452 0.1988021 0.1876355 0.1864757 0.1880532 0.1902079 0.1972283 0.2054219 0.2127146 0.2180134 0.2224575 0.2266823 0.2314992 0.2345812 0.2347422 0.2342203 0.2364847 0.2354849 0.2354453 0.2114507 0.2170426 0.2223241 0.2259167 0.2353978 0.1993972 0.188277 0.1871241 0.188689 0.1908283 0.1978579 0.2060686 0.2133681 0.2186575 0.2230952 0.2273099 0.2321163 0.2351789 0.2353159 0.2347661 0.2370198 0.2359904 0.2358892 0.2116497 0.2172407 0.2225099 0.2260959 0.2355498 0.1999972 0.1889258 0.1877798 0.1893331 0.1914559 0.1984949 0.2067228 0.2140307 0.21931 0.2237414 0.2279449 0.232741 0.2357841 0.2358961 0.2353178 0.2375607 0.236501 0.2363385 0.2118511 0.2174404 0.2226961 0.2262766 0.2357035 0.200603 0.1895814 0.1884427 0.1899843 0.1920913 0.1991387 0.207385 0.2147018 0.2199713 0.2243951 0.2285876 0.233372 0.2363955 0.2364823 0.235877 0.2381083 0.2370178 0.2367922 0.2120551 0.2176427 0.2228838 0.2264574 0.2358581 0.2012153 0.1902455 0.1891149 0.1906443 0.1927343 0.1997908 0.2080561 0.2153814 0.2206405 0.2250571 0.2292391 0.2340118 0.2370157 0.2370776 0.2364434 0.2386634 0.2375413 0.2372515 0.2122606 0.2178468 0.2230738 0.2266406 0.2360153 0.2018335 0.190916 0.1897948 0.1913122 0.1933856 0.2004516 0.208736 0.2160695 0.2213187 0.2257289 0.2298992 0.2346618 0.2376438 0.2376799 0.2370165 0.2392248 0.2380706 0.2377153 0.212468 0.2180526 0.2232666 0.2268254 0.2361728 0.2024592 0.1915958 0.1904831 0.1919869 0.1940447 0.2011214 0.2094266 0.2167682 0.2220062 0.2264101 0.2305705 0.2353207 0.2382794 0.2382889 0.2375966 0.2397936 0.2386065 0.2381842 0.212678 0.2182607 0.2234604 0.2270109 0.2363313 0.2030922 0.1922843 0.1911801 0.1926696 0.1947102 0.2017981 0.2101254 0.2174757 0.2227033 0.2271005 0.2312488 0.2359861 0.2389223 0.2389044 0.2381818 0.2403678 0.2391471 0.2386575 0.2128891 0.2184703 0.2236567 0.2271985 0.2364924 0.2037324 0.1929817 0.1918862 0.1933611 0.1953841 0.2024832 0.2108328 0.218192 0.2234087 0.2277988 0.2319347 0.2366588 0.2395719 0.2395263 0.2387727 0.2409476 0.2396927 0.2391348 0.2131013 0.2186812 0.223854 0.2273871 0.2366543 0.2042907 0.1935882 0.1924998 0.1939623 0.1959691 0.2030734 0.2114425 0.2188051 0.2240183 0.2283983 0.2325187 0.23723 0.2401219 0.2400586 0.2392773 0.2414402 0.2401588 0.2395306 0.2132853 0.2188626 0.2240238 0.2275455 0.2367861 0.2048217 0.1941728 0.1930934 0.1945404 0.1965315 0.2036422 0.2120289 0.2193943 0.2246038 0.2289736 0.2330798 0.2377798 0.2406508 0.2405651 0.2397584 0.2419104 0.2406016 0.2399076 0.2134632 0.2190402 0.2241918 0.2277029 0.2369175 0.2053386 0.1947487 0.1936768 0.1951139 0.1970881 0.2042074 0.2126097 0.2199784 0.2251887 0.2295438 0.2336356 0.2383255 0.2411771 0.2410693 0.2402384 0.24238 0.2410463 0.2402854 0.2136399 0.2192166 0.2243579 0.2278575 0.2370478 0.205827 0.1952909 0.1942274 0.1956555 0.1976151 0.2047407 0.2131575 0.2205286 0.2257418 0.230085 0.2341611 0.238843 0.2416762 0.2415449 0.2406923 0.2428246 0.2414683 0.2406431 0.2138042 0.2193804 0.224512 0.2280005 0.237169 ]
</RescaleComponent> 
<AffineComponent> <LearningRate> 0.001 <LinearParams>  [
  0.01218007 -0.2624723 -0.3126692 0.2387578 -0.0518763 0.0002295358 0.2038123 0.2991977 0.2646073 0.3462942 0.3044089 0.1042748 -0.06480321 0.2366243 -0.008545861 -0.2747037 -0.05579209 -0.1229229 -0.004539179 0.0192674 -0.1660206 0.0535111 -0.175952 -0.1015602 -0.08196394 -0.2926465 0.2392162 -0.1096429 -0.1040526 -0.01533869 0.04533857 -0.05314606 -0.002921611 0.06887675 -0.1437483 0.08332816 0.01015996 -0.1441017 -0.07055927 0.08578213 -0.1134612 0.05864846 0.1242017 -0.1141307 0.2186259 -0.1530165 -0.2931819 -0.2536495 -0.2702887 0.07237682 0.003840448 -0.2715893 -0.1554073 0.03179024 0.06017575 -0.06624515 0.02070643 -0.0005137792 0.08084317 0.1348191 0.01302491 0.0297397 0.2230313 -0.2246999 0.2058301 0.2559589 -0.06193034 0.2291822 -0.02812465 -0.05723217 0.04224819 -0.2799225 0.1179268 0.1222031 -0.1255365 -0.133322 -0.1053025 -0.1416802 -0.2729962 -0.03050495 -0.1252905 -0.07945596 0.02002333 -0.1071866 -0.1506354 0.04733092 -0.2274057 0.2711602 0.1301373 0.02038092 -0.001152283 -0.004991197 -0.2943507 0.1694011 -0.2314405 0.4114046 0.2926183 -0.008272103 -0.2003081 -0.2150963 -0.181519 -0.2810328 -0.06558004 -0.1215539 0.02587175 0.01418207 -0.1431055 -0.03233258 0.1354451 -0.159475 0.05520367 0.05280706 -0.0492236 0.04469726 0.1414968 -0.1062237 0.1982406 0.03241405 0.5844852 0.4568577 0.3702592 0.07970387 -0.03584874 -0.07638702 -0.3018429 -0.1077406 -0.04562628 -0.08696619 0.01512252 -0.1860216 -0.04091911 0.1484769 -0.1328171 0.0744572 -0.03748116 0.06019177 0.0783602 -0.06544325 -0.1807894 0.4576481 0.1356169 0.6743503 0.5440221 0.7378535 0.1661861 -0.0002662182 0.2117628 -0.1053958 -0.2781271 -0.09187751 -0.09107576 0.2219821 -0.1617868 0.09869753 0.1788535 -0.1869922 -0.04518117 0.02367734 -0.1027582 -0.03171075 -0.1793326 -0.08419134 0.4963207 0.344657 0.3853453 0.7692543 0.8137903 0.5155557 0.4002263 0.4885149 -0.02496388 -0.04754801 0.08584592 0.122526 0.1306009 -0.1320185 -0.0121326 0.2156353 -0.08791099 0.03088697 -0.0977502 -0.1078186 -0.1377821 -0.07200921 -0.01102185 0.4634351 0.5665451 0.2027886 0.726061 0.9574997 0.882868 0.5285034 0.5697325 0.2056022 -0.03511109 0.1159493 0.1306998 0.1751162 -0.02989282 0.2286905 0.3994296 -0.03748461 -0.1536128 -0.1115787 -0.02671798 0.1691228 0.1806877 0.2006281 0.3668869 0.4730937 -0.05402751 0.2233586 0.5668569 0.4826427 0.1736516 0.3141057 -0.07590814 -0.1581601 -0.172645 -0.03762987 -0.03225489 -0.1843961 0.2713728 0.06805001 -0.1723642 -0.09787731 -0.03304494 0.007632914 0.04215597 0.09639452 0.4521778 0.3491913 0.4847806 -0.4440097 -0.04112014 0.08441453 0.2212464 0.03827249 -0.1417011 -0.3559342 -0.176855 -0.01819124 -0.1608471 -0.06633708 0.02204036 0.126526 0.03579073 -0.1558611 -0.09973226 -0.0222481 -0.08995583 0.208762 0.2147862 0.3558512 0.2327027 0.2929535 -0.1988601 -0.09920511 -0.03752045 0.1520132 0.008209099 0.01130177 -0.07226302 -0.006766185 0.1947135 -0.1586971 0.09925888 0.1014114 0.1761106 -0.03362418 0.08477548 0.007075912 0.05222293 -0.04679309 0.1623951 0.03392133 0.1085434 0.09197482 0.3839349 -0.1104906 0.005402676 -0.1259762 -0.01313457 -0.04266221 0.04433897 -0.08487777 0.2341975 0.265766 -0.1595817 0.1799036 0.05631562 0.1979234 -0.1718478 -0.09532097 0.2192923 0.05452413 -0.008850532 0.2286685 -0.1712916 0.03202909 0.1204247 0.163008 0.004776083 -0.1730859 -0.5872569 -0.1574688 -0.2612499 -0.1532856 -0.4098468 -0.009016718 0.03075018 -0.3946838 -0.07164761 -0.05320636 -0.002678286 -0.1864962 -0.2217047 0.01964472 -0.06312674 -0.2908379 0.01596604 -0.3975984 0.0800558 0.1727378 0.1813948 -0.02344769 -0.4763414 -0.8974491 -0.124763 -0.1687778 -0.04521609 -0.02059663 0.1051949 0.1838402 -0.1395772 0.2545848 0.03584575 -0.05314231 -0.3636384 -0.1343687 0.0670427 -0.04441388 -0.1052773 0.09565275 -0.3252244 -0.2418577 -0.3349692 -0.5543057 -1.280981 -2.410131 -2.160305 -1.308136 -0.6338007 -0.3288265 -0.2278965 -0.1336785 -0.007337532 -0.2941648 -0.04458751 -0.07907447 0.2642129 -0.1308096 0.03869779 0.1868038 0.0674876 -0.09183459 0.1893746 -0.2502549 
  0.7066664 -0.07819346 0.5070063 -0.5997242 -0.4923402 -0.2494854 -0.4038165 -0.11658 0.156387 0.07565339 -0.2409341 0.01188039 0.178874 0.1812554 0.1957841 0.2362542 0.3587542 0.4308036 -0.2670462 -0.1070917 0.1752024 0.1043331 0.03918295 0.4093893 -0.1017312 0.3420762 -0.2320978 -0.2683004 -0.1940041 -0.1926268 0.09044026 0.3182878 0.1141888 -0.1028753 -0.09972411 0.1324872 0.2199995 -0.07828904 0.10096 0.1292998 0.2175126 -0.2614231 -0.1743654 0.01035184 0.04147132 -0.04855444 0.1533629 -0.1641937 0.3270802 -0.2819277 -0.08093429 -0.2110092 -0.3452105 0.02992154 0.156716 0.06252414 -0.2679991 -0.148542 -0.1153569 -0.04732285 0.02549991 -0.01947928 0.1374356 0.2413929 -0.3719558 -0.06175123 -0.07329463 0.1915804 -0.05880543 0.218283 -0.1274528 0.3948798 -0.1495843 -0.2049384 -0.3482914 -0.06749445 -0.02891396 0.009797649 -0.01572727 -0.2217733 -0.2347046 -0.08619148 -0.02786787 -0.2755323 0.06410369 0.1939671 0.2556924 -0.2375007 -0.1371564 0.009619789 0.05424976 -0.1463369 0.3756393 -0.07388209 0.6368669 -0.2160269 -0.09686274 -0.275513 -0.1919515 -0.2160287 -0.08968619 -0.1737786 -0.06633709 -0.2748673 -0.1342509 -0.1031889 -0.1983017 -0.07211974 0.1041221 0.3017165 -0.1612287 -0.2043985 -0.02084809 0.04370476 -0.146741 0.3641119 -0.03215665 0.5882308 -0.1702555 0.1011025 -0.1493071 -0.165595 -0.1243696 -0.1553573 -0.1258551 -0.1420678 -0.4437213 -0.09244303 -0.1588182 -0.3534772 -0.0008376614 0.1022011 0.5835328 -0.4128725 -0.09364714 -0.0266032 0.2435378 -0.199914 0.3925336 -0.02242286 0.2877715 -0.2977685 -0.3009942 -0.1002545 -0.1445147 -0.1244922 -0.192025 -0.1551553 -0.191637 -0.2924798 -0.02045636 -0.004716184 -0.3691373 0.1355792 0.1314095 0.53828 -0.3521701 -0.2792045 0.0565712 0.09212331 -0.09077541 0.2455265 -0.03433024 0.2530687 -0.2815441 0.09910785 -0.08500089 -0.1719494 -0.292466 -0.3500486 -0.2510872 -0.2860183 -0.3420837 -0.1685959 -0.2406227 -0.4082609 -0.1182784 0.000405667 0.4470043 -0.5734585 -0.007772231 -0.02267123 0.04018372 -0.2160008 0.2354219 -0.1155015 0.2713369 -0.3610835 -0.1276196 -0.0443179 -0.02541279 -0.2154818 -0.3572413 -0.3292421 -0.2649187 -0.2306307 -0.1131723 -0.3263488 -0.43112 -0.06007685 0.05545988 0.5438527 -0.3748697 -0.07931408 0.1667798 0.1151619 -0.1988649 0.1593683 -0.05470349 0.3916469 -0.2139058 0.01114938 -0.01493834 -0.1301408 -0.1794136 -0.3121135 -0.2040262 -0.2508153 -0.1597004 -0.1526289 -0.1707718 -0.3443415 0.04140926 0.1668624 0.5699863 -0.2149545 -0.03030258 0.2040932 0.3457671 -0.1921483 0.1156091 0.2161998 0.196474 -0.2824012 -0.01271244 -0.03682888 -0.009012631 -0.07669193 -0.2869201 -0.2151364 -0.06651816 -0.2027044 -0.04386215 -0.02057426 -0.1726565 0.2385942 0.1742879 0.6782313 -0.2632021 0.04562904 0.1124226 0.3767384 -0.235022 0.2441722 -0.03854685 0.02504902 -0.3511281 0.00691351 0.02816802 -0.1686208 -0.1599069 -0.2869281 -0.3368817 -0.1986932 -0.1460082 -0.2595209 -0.201699 -0.07215795 -0.1108303 0.1575483 0.5245662 -0.3051754 0.1568272 0.2777466 0.2297602 -0.4219776 0.3453556 -0.02340266 0.07741272 -0.4473778 -0.06096825 0.03826687 -0.231357 -0.1726294 -0.01154645 -0.1830833 0.0005877035 -0.2318325 -0.1718407 -0.07603739 -0.1934868 -0.09667493 -0.02113809 0.5290747 -0.2510819 0.01911772 0.3799202 0.2486932 -0.3493241 0.3333532 0.1428833 0.2430202 -0.3590073 -0.02152091 0.006276538 -0.2611833 -0.2881622 0.07414185 -0.2309562 -0.210412 -0.2137869 -0.2852704 0.01204193 -0.2823273 -0.1694861 -0.1048075 0.3343867 -0.4631725 0.1730106 0.2283314 0.02905601 -0.3571286 0.5322967 0.1288848 0.4354916 -0.5640884 -0.1568296 -0.02892774 -0.2374575 0.06394899 0.1167152 -0.04125046 -0.1635933 -0.1536012 -0.2398945 -0.139389 -0.4799574 -0.2983109 -0.2741427 0.1040855 -0.4319558 0.09166353 0.4390104 0.04293219 -0.3208916 0.5797219 0.333632 0.3051347 -0.6469128 -0.6235749 -0.2327111 -0.5468153 -0.3127595 0.1360555 -0.04546916 -0.2891207 -0.2970914 -0.4242742 -0.1103638 -0.3462295 -0.3279466 -0.2937991 0.2946944 -0.6785026 0.007546787 0.3784286 -0.149787 -0.4172262 
  -0.1602777 -0.3527779 -0.3539223 -0.1025993 0.05945341 0.5288016 -0.04229381 -0.01372929 0.02164127 0.1055726 -0.1084861 -0.01094027 -0.00629456 0.05177199 -0.01953994 -0.02060109 -0.06782164 -0.01489289 0.07464788 -0.1897068 -0.00154812 0.05047004 -0.1954331 0.469921 0.2992337 -0.1942937 -0.2107037 -0.3993874 0.2292568 0.1310954 -0.2659621 0.03236454 0.03669151 0.05192333 0.1345021 0.07169691 -0.09454726 0.03587436 0.06264235 0.04277387 -0.0820743 0.09882914 -0.06366713 0.08326431 0.07377808 -0.002098951 1.147097 0.1356849 0.4617113 0.4642625 -0.5729446 -0.2447283 0.09483115 0.06845479 0.1219238 -0.1068818 0.08643651 -0.002307143 -0.05002638 0.05578544 0.08896945 0.001784424 -0.04013471 0.02964752 0.05252507 0.06286851 -0.01594882 -0.02074718 -0.008275979 -0.1513451 -1.169966 0.5942654 1.546543 0.3071754 -0.6804033 -0.212707 -0.1032684 -0.1251873 -0.2416823 0.1083345 -0.06986824 -0.043171 0.03303948 -0.1073117 -0.125536 0.08487824 -0.02717219 -0.130397 0.08482525 0.01778691 -0.04299766 0.0127871 -2.682556 -2.229258 0.2070407 1.579772 1.426142 -0.02511135 -0.3045307 -0.05029264 -0.06700037 0.120492 -0.1944443 -0.2535427 -0.1160714 0.01445929 0.03855443 -0.06134991 -0.0337294 0.01625154 -0.1172972 -0.04834153 -0.04335631 -0.06744669 -0.08708805 -0.822898 2.185515 -0.6110815 -2.513029 0.09066624 0.5039131 0.06093086 0.2325879 0.1606437 0.2562047 0.01083786 0.02186343 0.01911806 -0.01424161 0.06875036 0.0733216 -0.01810425 0.1116105 0.09004535 -0.04653511 0.1712328 -0.01595294 0.1009457 2.72656 7.299804 0.7546882 -4.080417 -1.565698 0.4232143 0.1659591 0.1639968 0.1690185 0.05153461 0.02016297 0.3267385 0.2167244 -0.0454769 -0.1095681 0.263904 -0.01843353 -0.03438361 0.03674617 0.1041088 0.0200117 -0.03603661 -0.01140316 1.750906 1.867736 0.9068922 0.1997385 -0.6963878 -0.1081823 0.08382859 0.07670428 -0.02780992 -0.2022806 0.04357979 0.0481336 0.09966744 -0.01107076 0.06311078 -0.0851265 0.004923293 -0.06669287 -0.03858051 -0.03976536 -0.1236307 0.1022134 -0.01395751 -0.8030687 -8.11109 -3.242831 2.938059 0.3750764 -0.6516349 -0.248226 -0.2646049 -0.1036285 -0.1285468 0.09466171 -0.3304673 0.004992574 0.03866963 -0.002188698 -0.02607216 -0.0501103 0.03729862 -0.0258504 -0.09972792 -0.06207825 0.1137736 -0.1933383 -2.577475 -9.964392 -3.795421 3.135243 1.051218 -0.02719874 -0.06941132 -0.3488079 -0.1539739 -0.06322221 0.02561038 -0.2314977 -0.05818835 -0.0571932 0.0971328 -0.03986428 -0.004834883 0.007171101 0.2100181 -0.03975215 0.164368 0.1082819 -0.1395812 -1.76355 0.1976965 2.488655 1.44458 0.7337185 0.5137016 0.2141688 0.06759057 0.01794013 0.05825242 -0.03651986 0.01588257 0.01683828 -0.02947433 -0.05759387 -0.03026048 0.1471179 -0.03481529 0.1386713 -0.1317541 0.009150766 -0.05609079 0.1965457 2.306368 9.716434 4.478531 -3.028115 -1.084899 0.01354086 0.08948331 0.1505461 -0.05806202 0.004243209 -0.1110349 0.1656581 -0.01329196 -0.1217526 -0.05347937 -0.1718977 0.09565555 -0.03415165 -0.05776557 0.1024635 -0.02059269 -0.07160769 0.1856794 1.840571 3.907025 -0.2485096 -3.259719 -1.098504 0.04658024 0.0981494 0.2539275 0.01054843 -0.01598131 0.1489132 0.1410715 -0.0507138 0.1608446 -0.03479269 -0.01723454 -0.05101688 0.03019358 -0.01708084 0.08970787 -0.05358098 -0.04972243 -0.04447845 -0.5682868 -1.837153 -1.637087 0.2656023 0.4192987 0.06736889 0.05409799 0.1647559 -0.1097955 0.06196943 0.1233607 -0.03149114 0.0187519 0.04347399 0.01578463 -0.01552378 0.01342963 0.1270428 -0.08863829 -0.08181025 0.0861687 0.02103073 -0.1007151 -0.3013743 -1.696782 -0.1503194 1.512659 0.432719 -0.047732 -0.09252668 -0.1525301 0.06591254 -0.1139625 -0.1074436 -0.08880724 -0.01460331 -0.1207153 -0.02323547 0.02575422 -0.02056154 0.05906583 -0.03758679 -0.0144325 -0.08619109 0.07089762 0.06995097 0.170258 -0.7901825 -0.008744086 0.7383933 -0.06381435 0.08662695 -0.08693311 -0.08046846 0.1027339 -0.07291741 0.09827187 -0.1153301 0.1312268 -0.1107604 0.1854027 -0.03179521 0.1861131 -0.2991901 0.2501596 -0.06573284 0.03281901 -0.05344494 -0.09616912 
  0.1061204 -0.02028408 -1.415686 -1.043819 0.5486736 1.161838 0.5637827 0.5419833 -0.6185238 -0.2445943 0.4660905 0.0910074 -0.9571713 -0.5543808 0.1418141 -0.21409 0.392933 0.6345546 -0.1307575 0.5715041 0.08549481 0.09910505 0.06838274 0.4939201 0.05036151 -0.9100777 -0.7279972 1.30949 1.753663 0.6828507 0.6802001 -0.4539021 0.09521285 0.5441393 0.08828841 -0.6697991 -0.2863602 0.1430895 -0.1890605 -0.09033275 0.07580445 -0.2848673 0.2262766 -0.1168511 -0.1648058 -0.09832579 0.02027364 -0.4167762 -1.274851 -1.18684 1.270493 1.790131 0.6968498 0.6917536 -0.2184329 0.2644716 0.5234354 0.2645236 -0.6605313 -0.2821083 0.1999812 -0.07042969 -0.04821683 -0.1879517 -0.288258 0.3561254 0.02024902 -0.0679228 -0.1445717 -0.01445175 -0.3545888 -1.204575 -1.0894 1.167661 1.54956 0.632772 0.8454313 0.1050884 0.1916098 0.4270495 0.138859 -0.6316711 -0.1747574 0.1109122 -0.2368855 -0.1304323 -0.3790547 -0.304107 0.4303064 0.03823609 0.05000428 -0.2468401 0.2098615 -0.06099837 -0.54958 -1.133963 0.5797043 1.180542 0.2748253 0.8551714 0.1177964 0.1113841 0.3286328 0.01522626 -0.5710667 -0.1211966 0.1479699 -0.34542 -0.2459618 -0.492806 -0.3231646 0.3738973 0.03881479 0.01532951 -0.3411604 0.2112394 -0.02910612 -0.2660867 -1.033083 0.3161027 0.8076268 0.1980026 0.4874606 -0.01885072 0.02817195 0.2030461 -0.06491224 -0.3273534 0.01446979 0.1966357 -0.1791074 -0.3194729 -0.3842482 -0.1228559 0.2810073 0.06993113 0.2104826 -0.2034977 0.1377493 -0.07279073 -0.04074158 -0.8312143 0.007744357 0.3581081 0.0753133 0.2595288 0.09259093 0.1360672 0.04747041 -0.01842693 -0.02237809 0.02518539 0.2857376 -0.08643672 -0.3352621 -0.3069752 -0.2227536 0.2315181 -0.02708691 0.3171907 -0.3069665 0.07735696 0.1020412 0.02983346 -0.6620365 -0.2662953 0.07800896 0.106319 0.2211624 0.0693014 0.083067 0.06961065 0.1586202 0.2142279 0.07134747 0.03203205 -0.02115207 -0.1820714 -0.2345772 -0.03761222 0.1316461 -0.1932257 0.4297081 -0.2388295 0.09740952 0.2633067 0.1982092 -0.7194449 -0.3352637 -0.1609269 -0.1304249 0.007954407 -0.2454276 0.07191285 -0.121741 0.1458185 0.2009348 0.148878 0.01583511 -0.009631366 -0.2560765 -0.3586152 0.1400945 0.07836937 -0.4059439 0.2977891 -0.1866444 -0.0657656 0.2473422 0.1207275 -0.7815831 -0.2480535 -0.2901714 -0.146413 -0.2623944 -0.1291991 0.1746688 0.08835345 0.2294455 0.4495583 0.2152216 0.06605992 0.1380033 -0.1691698 -0.1311877 0.1534218 0.1456991 -0.342017 0.2793342 -0.101368 0.0517231 0.2388418 0.167649 -0.4523688 -0.2563148 -0.3788423 -0.1886942 -0.2219783 -0.4230135 0.06836344 0.1445057 0.2549405 0.3876821 0.1377124 -0.06646965 0.05425757 -0.004635782 -0.07271799 0.173706 -0.001718696 -0.391431 0.3961523 0.01443968 -0.134252 0.2736452 0.1935999 -0.1831595 -0.0566588 -0.2839387 -0.2708017 -0.2454202 -0.335504 -0.08118985 -0.01167794 0.232855 0.2473886 -0.003189427 0.122811 0.1983775 0.04768345 -0.04822531 0.09649636 0.1521426 -0.3341649 0.1958703 0.05637523 0.120868 0.4167386 0.2189643 -0.01668417 -0.05246348 -0.2212007 -0.2029565 0.01848501 -0.2507197 -0.1286504 -0.04899065 0.2378371 0.2531535 -0.1551392 -0.03859791 0.1387226 0.06478147 0.007086953 0.08781187 0.1121911 -0.3407151 0.1479291 0.08643153 0.1016124 0.3074635 0.2538279 -0.09422919 -0.1189983 -0.0703122 -0.2226144 0.1273973 -0.2476673 0.04567597 -0.237356 0.04519161 0.03220718 -0.1348301 0.01746787 0.02358948 0.1181482 0.005772001 -0.06685565 0.2130879 -0.6279404 0.1421288 0.02823439 0.02501647 0.09021367 -0.005377355 -0.08128802 -0.06690998 0.0107344 -0.180362 0.2416313 0.03448392 0.2850262 -0.2905526 -0.00899734 0.06994112 -0.05056878 -0.2118145 0.02721375 0.02636045 0.162851 -0.05313653 0.1807521 -0.4358963 0.1156556 0.03589315 0.3105119 0.006353372 -0.0074696 0.1715887 -0.1202671 -0.2071322 -0.6051385 -0.2142203 -0.3427701 0.1097215 -0.3608895 -0.2321876 -0.2071004 -0.0233033 -0.2223125 0.06904584 0.2210625 0.3199301 -0.0537378 0.1402131 -0.7489715 0.3016307 0.1049521 
  0.05633047 0.1586662 0.2031464 -0.1203684 -0.1492658 0.2067273 -0.03325567 0.263801 0.03244555 -0.01287621 -0.3922077 0.2596109 0.3944798 0.5133135 -0.004815732 -0.07545666 -0.122754 -0.0913116 0.1036193 -0.009824719 -0.01489382 0.3010571 0.1834293 -0.1621839 0.2206888 0.2784172 -0.02003685 -0.0280487 0.07847431 0.01787981 0.07677414 -0.1417948 -0.09034865 -0.246644 0.1677372 0.08897509 0.2827231 -0.1020361 0.04343604 -0.2148587 -0.01100527 0.03219291 -0.0960134 -0.2126021 0.3671192 -0.01727457 -0.03912137 0.1352182 0.1654677 -0.1332932 -0.4698768 0.1648704 0.08646736 -0.04127089 -0.1417262 -0.03235791 -0.3074847 0.1024203 -0.07423324 0.3642638 -0.123393 -0.03940071 -0.1720959 0.2091199 0.07224716 0.004210251 -0.09479252 0.1030727 0.1164236 -0.05923687 0.1476165 0.3333799 -0.05163234 -0.5309697 0.1266531 0.09888044 -0.03768774 -0.2323661 0.03902565 -0.1913442 -0.01202467 -0.135521 0.1504234 -0.1626238 -0.0424093 -0.1134625 0.09489402 0.2051874 -0.0961858 -0.1203135 0.4285173 -0.004977196 -0.08886225 0.2937469 0.3885554 0.1421019 -0.6642504 0.1494505 0.3120072 -0.1865048 -0.1928898 0.1611375 -0.2309686 -0.01107131 -0.2391463 0.3770784 -0.1904282 0.02570565 -0.3782758 0.1025965 0.1564584 -0.05197706 -0.08244299 0.2362985 -0.04488449 -0.1063646 0.3841856 0.4808977 0.1384991 -0.6981454 0.07050363 0.2817195 -0.2732724 -0.2830169 0.04825126 -0.01178909 -0.1826664 -0.1235324 0.1513103 -0.07669127 0.1129217 -0.1938555 0.07404354 0.1170448 0.02663609 -0.0008768521 0.1125328 0.05853406 0.0003180163 0.5260301 0.4946404 -0.008345545 -0.6921555 0.1504224 0.4585999 -0.2833668 -0.3783675 0.0629385 -0.1730235 -0.2027036 -0.2581401 0.3082954 -0.006616523 0.143958 -0.3873015 -0.08358987 0.4036599 -0.253371 -0.09376447 0.1977296 -0.04815324 -0.08247928 0.5640421 0.6397186 0.09002021 -0.608606 0.01039591 0.3355145 -0.4598598 -0.5443242 -0.03705937 -0.2282518 -0.3920149 -0.1872081 0.1596809 -0.03390495 0.09283364 -0.322841 0.06966939 0.2576423 -0.2254995 -0.1891722 0.1542847 -0.2672786 -0.1617798 0.613363 0.8054814 0.4148255 -0.3777715 -0.104262 0.1817461 -0.5570624 -0.6146445 -0.1670688 -0.4664757 -0.3301046 -0.3656886 0.2241172 0.02339158 0.07555593 -0.2570179 0.1396228 0.2768711 -0.08901124 -0.3137677 -0.1406272 -0.1417267 -0.1826403 0.7824358 0.9991217 0.9171815 -0.04299711 0.0090021 0.1129966 -0.4014365 -0.6591718 -0.4058845 -0.4539944 -0.3522453 -0.1755241 0.1761813 -0.02205573 0.09568612 -0.0879738 0.1113331 0.2662008 -0.1489644 -0.2195287 -0.1409345 -0.1992823 -0.1317518 1.003568 1.328479 1.389382 0.2895047 -0.1881477 0.08593607 -0.2516983 -0.6131918 -0.7599785 -0.4944181 -0.371957 -0.1750004 0.196231 0.03227675 0.2131669 -0.01425457 0.2968626 0.2286535 -0.2475665 -0.1543144 -0.04199035 -0.2679015 -0.04548397 0.8216459 0.6604047 0.8483675 0.04771644 0.1461492 0.1533614 -0.1279735 -0.4438164 -0.3764991 -0.3131269 -0.1604182 -0.2082404 0.1629653 -0.211537 -0.04286784 -0.1631471 0.1023554 0.01190787 -0.140207 -0.0949532 0.03772294 -0.1994578 0.1206997 0.4178925 0.2092367 0.3780042 0.1104625 0.0278636 0.2543042 0.162664 -0.1247961 -0.2536011 -0.05486061 -0.01733153 -0.1966913 0.2974896 -0.1702608 -0.07457466 -0.1679976 0.2693274 0.06715956 -0.2282 -0.1242012 0.1813435 -0.2298722 0.008757312 0.2462893 -0.08820139 0.2175671 0.08249926 -0.007348876 0.1018264 0.1998854 0.0161117 -0.2001355 0.1203507 0.01296139 -0.07381169 0.2054751 -0.218518 -0.05128299 -0.3732361 0.01135314 0.03913661 -0.2189625 -0.04336601 0.1590023 -0.004077306 0.04962999 0.1519932 -0.4947946 0.06462731 -0.008765741 -0.2092075 -0.08351051 0.1356183 0.1375054 -0.05754498 0.0118575 -0.01173719 -0.2775471 0.1881777 -0.2988357 -0.1347089 -0.3062591 -0.005653256 -0.02146184 -0.4991442 0.03750358 0.2982075 -0.0769815 0.8845094 0.329491 -0.295308 0.01025125 -0.0738313 -0.06673855 0.01189804 0.2850814 0.3724966 0.1658375 0.06484696 0.1582037 -0.03027709 0.1027402 -0.2122104 0.007113611 -0.08924057 0.3158967 0.2553457 0.02845886 0.3830936 0.8787415 0.3296493 
  -0.4674098 0.7466184 0.5686556 0.2935884 0.3826077 0.7448507 0.5627829 0.6615734 -0.08948603 -0.3081456 -0.3653195 0.1520156 0.1576811 -0.05075359 0.2259408 1.106643 0.9157435 0.7599621 -0.2376473 -0.5116152 -0.5416909 -1.747869 -3.142717 -0.3897969 0.4648481 -0.09566581 0.1220669 0.1365922 0.2612578 0.1878603 0.4092575 -0.1972053 -0.05732931 -0.2291218 0.08836369 0.03021437 -0.06041635 -0.1133871 0.4650635 0.3901792 0.5077262 -0.1172442 0.1189103 0.02044796 -0.8215572 -1.65413 -0.4029158 0.4551262 -0.06388073 0.2100665 0.2006927 0.2731502 0.1601327 0.224498 -0.1132192 0.1714609 -0.04505651 -0.0006744521 0.08027539 0.04875563 -0.2560238 0.6353428 0.2935062 0.3200289 -0.01467983 0.01856383 0.1417187 -0.5517558 -1.318664 -0.3949746 0.4004966 -0.4231453 0.2173487 0.2388924 0.2905601 -0.01583976 0.1574139 -0.1506351 0.2017913 0.051445 -0.1095528 0.1131675 0.2269078 -0.1561287 0.4094053 0.6215338 0.216636 0.08637948 0.1303613 0.1413354 -0.5441165 -1.074968 -0.2250181 0.387277 -0.4278938 0.1142369 0.2182559 0.03632914 -0.04683114 0.03884088 -0.2329113 0.1207546 0.137411 -0.2804376 -0.01171526 0.136239 -0.08779217 0.5040644 0.4013041 0.2283207 -0.03708426 0.1003944 0.3753157 -0.4876322 -0.7106059 -0.2350363 0.2398829 -0.5126116 0.300346 0.1137938 0.1929612 -0.04729794 -0.02234004 -0.1233501 0.2758177 0.02477241 -0.2439231 0.04039883 0.1667871 -0.04141429 0.5237144 0.2891434 0.3081466 -0.007195946 0.09100612 0.2198799 -0.3326582 -0.6208355 -0.1338199 0.2817384 -0.3452261 0.2861627 0.1770726 0.1427512 -0.06456442 0.01840623 0.003492979 0.2376542 -0.118926 -0.3573708 -0.05825111 0.1310929 -0.135623 0.5487021 0.138975 0.1389867 0.02844968 -0.1646029 0.1902751 -0.3548017 -0.1902663 -0.1256188 0.2270155 -0.5317333 0.2532257 -0.06468464 0.04474619 -0.2215133 -0.1366771 -0.08983684 0.2031133 -0.1097314 -0.3996986 -0.03688399 0.1178059 -0.2559802 0.4669358 -0.05076054 0.05531722 0.1494129 -0.06465181 -0.08508042 -0.4690754 0.2670329 -0.07130902 0.1725492 -0.3860642 0.06487071 -0.3452373 0.05406252 -0.385836 -0.2493015 -0.105185 0.1811882 -0.09246177 -0.37872 -0.01735071 0.08843555 -0.1993915 0.3597953 -0.1283649 -0.08077995 0.233325 -0.0702802 0.04387759 -0.4258087 0.5037521 0.01357634 -0.07208057 -0.2941321 0.1200924 -0.314664 -0.1512242 -0.3231094 -0.4947521 -0.1154981 0.2067549 -0.1272141 -0.2810012 -0.03333905 0.01133162 -0.5104052 0.1570204 -0.3348421 -0.2832011 0.3189197 -0.2895786 -0.01091123 -0.2958823 0.8025691 -0.03866674 -0.3074216 -0.2233778 0.2730083 -0.2142071 0.0976672 -0.3255637 -0.4230007 0.04490227 0.2652362 0.2517895 -0.01789907 0.2189459 0.03929331 -0.3855569 0.03843883 -0.5069848 -0.4022928 0.3912649 -0.1589126 0.1921755 0.0490954 0.9994034 0.01826604 -0.3826194 -0.09555262 0.4318281 -0.04248818 0.1286625 -0.2920056 -0.380431 0.1712079 0.3000442 0.09803809 0.1098565 0.3496872 -0.1144592 -0.4003195 -0.2212224 -0.7064514 -0.4057077 0.5999058 -0.2692185 0.2964334 0.1855612 1.319476 0.122497 -0.2943007 0.1902816 0.4681506 0.06561977 0.2159131 -0.4213414 -0.3250686 0.1922674 0.3674666 0.08580995 0.06862104 0.4801192 -0.08382326 -0.4944085 -0.1230635 -0.9108034 -0.7654608 0.9377902 0.0006533485 0.20513 0.3150685 1.76561 0.1937347 -0.1583271 0.05193805 0.3440897 -0.1390116 0.1581676 -0.5133226 -0.1511615 0.1853483 0.219826 0.1771837 0.1768408 0.336487 -0.2231689 -0.7041547 -0.1126775 -1.147201 -0.9165256 0.7822604 -0.1407371 0.2345693 0.502483 1.627558 0.08445383 -0.1825189 0.1213221 0.2466797 0.03743428 0.09304366 -0.3061521 -0.06303845 0.260465 -0.04383576 -0.1086802 0.03092609 0.3250715 -0.2882742 -0.7954969 0.1435004 -1.224744 -0.7317804 1.120145 -0.02719014 0.3242884 0.3667207 1.53322 -0.1104565 -0.5328768 -0.1017427 -0.3718365 -0.8805674 -0.3717489 -0.3528958 0.2638476 0.8710862 0.593288 0.6020661 0.7811275 0.6872434 -0.1776406 -0.6281551 0.3575846 -1.158115 -0.7857055 1.129974 -0.2840326 0.197494 0.0551565 0.9395089 
  0.6926982 0.9072126 -0.4521733 -0.676074 -1.270146 0.2995423 1.755347 1.449367 1.405451 0.5692909 -0.1652507 0.4618216 0.5287183 0.3504873 0.01339368 0.8043808 0.4207335 0.6564776 0.2127117 0.08498648 0.2848789 0.1011791 0.7461677 0.1879759 0.1561116 -0.5683095 -0.4887127 -1.520552 -0.574287 0.6826525 0.5828717 0.7830786 0.1566449 -0.2758601 -0.1428948 0.1543173 0.1839637 -0.1931956 0.3056059 -0.02784647 -0.08296558 -0.3010896 -0.2702371 0.06848955 -0.1646437 0.1582317 -0.5748326 -0.2271319 -0.4443596 -0.06601179 -1.37127 -1.023666 0.2916961 0.5650216 0.6881006 0.4129838 -0.1706822 0.1655167 0.1145055 0.08648219 -0.05548699 0.4386356 -0.1291444 -0.3528509 0.05720691 -0.2340301 0.07989218 -0.204682 -0.1819078 -1.211297 -0.6696069 -0.5729243 0.07723527 -1.225147 -1.63947 -0.318738 0.174634 0.4137107 0.4150216 -0.1333803 -0.08075903 -0.2051543 -0.4284508 -0.2413976 0.1755641 -0.4036137 -0.2218911 0.01505966 -0.4310659 0.06276837 -0.3199898 -0.2346878 -0.7757139 0.03837744 0.07079507 0.5624181 -0.9800246 -1.72899 -0.0207138 0.2712673 0.496032 0.3340104 0.06333151 0.2289169 -0.144768 -0.1422868 -0.1195517 0.3859652 -0.176363 0.04687167 0.2758062 -0.214123 0.3139728 -0.1381803 0.3641162 -0.4741189 0.3812285 0.3030447 0.5203963 -0.9143002 -1.397553 0.07067817 0.6282895 0.3758597 0.2905274 0.1485557 0.2329774 -0.2112 -0.1072585 -0.06579053 0.4033121 -0.09957007 0.1046039 -0.01521195 -0.1317958 0.1426691 -0.04384813 0.455964 -0.2928341 0.2245427 0.173928 0.3150776 -0.9377866 -1.511119 0.2510595 0.5441328 0.5488159 0.2091817 0.08444048 0.1566239 -0.05344964 -0.1143223 0.03153869 0.2849691 -0.05594384 0.0004797112 -0.2992566 -0.4331352 0.2387315 -0.3535128 0.04822458 0.1583545 0.4954901 0.2059356 0.2095558 -1.086922 -1.13935 0.4484369 0.489673 0.4297237 0.249428 -0.03441736 0.1901641 -0.312268 -0.1645338 -0.0136374 0.0853801 0.1522643 -0.08189837 -0.3154345 -0.2621546 0.3520458 -0.1682628 0.1190483 0.4329414 0.3806058 0.2832446 0.1461757 -1.003641 -0.9811355 0.5758699 0.3860253 0.18598 0.05417555 -0.04821687 0.4271897 -0.2135063 -0.2784305 -0.2807785 -0.09602135 0.131342 -0.009978405 -0.4094243 -0.3745074 0.4661595 -0.200949 0.05865948 0.3215285 0.3993581 -0.09076566 -0.01543019 -0.8263682 -0.7572886 0.390374 0.363609 0.1804914 0.06895469 -0.1124089 0.3325132 -0.1783726 -0.07721687 -0.3036518 0.06329989 0.1146175 -0.04285844 -0.2189599 -0.1426066 0.3102362 0.04331243 0.1109776 0.2033777 0.1441581 -0.2726533 0.1754177 -0.6274657 -0.593458 0.1543745 0.307118 0.1577871 -0.01244475 -0.07470552 0.4522571 0.1517758 0.01452941 -0.2441413 -0.08704773 0.1574496 0.08435477 -0.1555418 -0.07779936 0.2340633 -0.1525123 0.1389625 0.3238206 0.1516398 -0.2843369 0.1029146 -0.4065145 -0.3561617 0.2650085 0.1386192 0.06759067 -0.1063885 -0.1026443 0.3643174 0.2165614 0.08963372 -0.2921979 0.02883894 -0.01303809 -0.03262383 0.01200018 -0.0488254 0.1341168 -0.09761814 0.1421644 0.4859598 0.3495361 -0.3162566 -0.1171491 -0.1856714 -0.02629914 0.1219836 0.031887 -0.03072663 -0.2273341 -0.07633769 0.1257926 0.1642837 0.2046406 -0.2898737 -0.07226872 -0.2452469 -0.03645071 0.01851801 0.1050837 0.1522749 -0.4730119 0.2337393 0.3563421 0.1669804 -0.7106945 0.001040409 0.0007622527 0.09335483 0.2297131 -0.2355934 -0.3530163 -0.2474328 -0.1865117 0.2069178 0.1018723 0.264951 -0.1985448 -0.1392427 -0.05197102 0.1285736 0.02074971 -0.03621113 0.1711221 -0.2934395 0.1838761 0.5044666 0.141075 -0.4272287 0.146561 0.2307703 0.5708052 0.5796713 0.1043552 -0.1391941 -0.01120655 -0.07436665 0.3383411 0.1012362 0.374549 -0.1079157 0.009849522 0.239575 0.3857314 0.05863287 0.3176498 0.1803776 -0.01038201 0.2131637 0.504284 -0.1549639 -0.8165979 0.2107653 0.0111544 0.308193 0.1029654 -0.5348547 -0.8065315 -0.6474985 -0.4069898 0.1263668 0.2629965 0.03267338 -1.051897 -0.1458239 0.01251748 0.4551659 -0.4065768 0.1179348 -0.1768254 -0.5948434 0.0735529 
  0.3867317 -1.30266 0.03037389 0.641206 0.5138301 0.01994726 -0.4436274 -0.4648387 0.2094755 0.2535383 0.253122 -0.1194762 0.2048698 -0.1056103 0.1265596 -0.4249073 0.0003363871 -0.04265286 -0.06534809 -0.200261 -0.04560188 0.2136271 0.431322 0.3706064 -0.7910994 0.2863307 0.4461863 0.07412577 -0.188027 -0.3324544 -0.1610459 0.1139809 0.006180785 0.2462966 -0.05854075 0.04578735 -0.02601096 0.1195897 -0.2440019 -0.06180157 0.0211619 0.02383787 -0.01614099 -0.06380037 -0.0538885 0.2206701 0.2826936 -0.8950384 0.3624435 0.5292703 0.03028407 -0.282021 -0.3372588 0.1170677 0.1377087 -0.1503408 0.1173934 -0.1276565 0.004663593 -0.09586021 0.1695947 -0.2812489 -0.01304519 0.1094944 0.09762423 -0.1158095 -0.07599678 -0.06297977 0.1930839 0.31582 -1.111655 0.6383014 0.5692737 0.09225716 -0.5354744 -0.2406109 0.0959789 0.2035218 -0.1557322 0.1300971 -0.1947653 0.07906165 -0.08864269 0.185847 -0.1562446 0.05694323 -0.01883196 0.1338745 -0.01885837 0.06019052 -0.1566114 0.001617645 0.05841779 -1.366277 0.5840996 0.7693003 0.07590868 -0.6305119 -0.2584944 0.4666401 0.2839307 -0.2936257 0.2718483 -0.3201239 0.1962555 -0.08932225 0.2890323 -0.1513667 0.1066628 0.09780132 -0.02183961 -0.08028553 0.02365073 0.07814648 0.02100686 0.1368689 -1.392676 0.693444 0.7930296 -0.049008 -0.7931947 -0.113236 0.4479355 0.2948962 -0.4045322 0.1021178 -0.07598524 0.07332084 0.01797739 0.1513439 -0.1796585 0.1151374 -0.1405926 0.3105176 -0.1612385 0.02989525 -0.02675094 -0.0597773 0.286101 -1.331788 0.8760712 0.9858484 -0.1162818 -1.213428 -0.07859129 0.6015766 0.3169809 -0.4030587 0.08589729 -0.1462035 0.04267396 0.03447477 0.1562053 -0.2055853 -0.005997323 -0.2372721 0.2074566 -0.1148406 0.02616938 -0.008690846 0.08091817 0.3150121 -1.502129 1.199385 1.357216 -0.2516016 -1.629546 -0.1466129 0.7776482 0.3747778 -0.368205 0.009612964 -0.0832539 -0.02750322 0.05657372 0.1303416 -0.1371476 -0.08196457 -0.1422381 0.2429329 -0.1142034 -0.09662289 0.08787186 -0.07191119 0.3309809 -1.765201 1.266212 1.81042 -0.3584626 -2.065129 -0.1901006 0.8809889 0.505783 -0.4795299 0.005479856 -0.1575511 0.03372964 -0.05222768 0.242691 -0.1042957 0.1210397 0.004355701 0.1542616 -0.09252022 -0.1401869 0.1249878 0.04387658 0.4866009 -1.789643 1.396029 2.01163 -0.4411657 -2.540901 -0.2325632 0.8614892 0.5098308 -0.2386291 -0.1235904 -0.1385781 0.1157693 0.1040629 0.3141916 -0.1472772 0.2227334 -0.0674185 0.2583771 -0.04033803 -0.01441315 0.1199969 -0.2111037 0.6331126 -1.600645 1.765459 2.395775 -0.5772122 -2.87051 -0.2670703 0.8665994 0.4303326 -0.4252677 -0.1323081 -0.2015805 0.2439492 0.1203175 0.1906393 -0.09709952 0.1966016 -0.1740572 0.09374145 -0.07799103 0.004312038 0.04570514 -0.2348854 0.5685374 -1.605593 1.721792 2.252179 -0.5183867 -2.731192 -0.212895 0.8673654 0.4312626 -0.1207715 -0.1251152 -0.05509712 0.1657122 0.1004497 0.04530743 -0.2421917 0.3085618 -0.1238656 -0.002778021 -0.1153795 0.01015609 0.2432123 -0.4230128 0.1919545 -1.658928 1.490196 2.136484 -0.2977189 -2.695325 -0.1516859 0.7703978 0.4708866 -0.1416772 -0.08441922 -0.1988189 0.2837721 0.2284349 -0.1228785 -0.217462 0.1558846 -0.2515871 0.03322937 -0.255474 0.01597052 0.1617677 -0.3791598 -0.1064275 -1.690604 1.246617 2.089584 -0.2923059 -2.371514 -0.1551246 0.7591015 0.3412187 -0.1705791 -0.01375022 0.006173206 0.2839429 0.02252085 -0.1089914 -0.06564206 0.2281121 -0.3562243 0.1002617 -0.2094803 0.08879263 0.2573807 -0.1373439 0.2911892 -1.372501 1.160016 1.774543 -0.1977439 -2.209096 -0.1827799 0.5608039 0.3268573 -0.4119985 -0.006149165 0.01510058 0.2295069 0.04949925 -0.1888448 -0.2586544 0.2196836 -0.3813743 0.1509961 -0.4055297 0.05848844 0.174071 -0.3068432 -0.005347922 -2.054852 1.021064 2.232621 0.3649889 -2.314544 -0.2222975 0.350024 0.3093134 -0.1710159 -0.03993149 0.01859951 0.4981236 0.2682729 0.01233227 -0.2932954 0.3331177 0.01587844 0.1469609 -0.4829177 0.04106839 0.5170313 0.1327717 
  -0.3048028 0.3577452 0.07361712 0.1248412 0.3028472 0.04402868 -0.268018 -0.3092928 -0.4718947 -0.5860355 -0.4143794 -0.2596033 0.2269776 -0.08849625 0.3451179 0.4354135 0.5055857 0.5737737 0.5716044 0.0875405 0.2296784 0.01679768 0.3821606 -0.1208786 0.08921603 -0.04402461 -0.003546418 0.2306843 0.1791679 0.1588858 0.2151331 0.2770934 0.1005191 0.1199746 0.02037871 0.1118736 -0.3934287 -0.1804797 -0.03203058 0.0129691 -0.1874492 0.01098777 -0.0003734499 -0.1583738 -0.2398938 0.04343375 -0.2974881 0.07433585 -0.02895901 0.1457541 0.1685864 0.1427565 0.2085071 0.05778782 0.3158642 -0.04381171 0.008983273 0.02242697 0.07042562 -0.1544026 -0.2710983 0.04319778 0.01477472 -0.183089 0.2070082 -0.1068891 -0.02193146 -0.2163601 0.178863 -0.4392094 -0.07937838 -0.1143429 0.05934941 0.2891399 0.2327101 0.1386113 -0.0004859718 0.4013937 0.05082376 0.08169384 -0.004323259 0.18745 -0.03276193 -0.2080626 0.05050581 -0.07194324 -0.3007223 0.1685077 -0.02602893 0.01282742 -0.3036131 0.2966345 -0.4654507 0.02673612 0.01864803 0.1814285 0.3363725 0.3160203 0.2629079 0.02333162 0.3533175 0.1211123 0.04805011 0.1307871 -0.004525587 0.01744843 -0.3685437 -0.04774147 -0.1945633 -0.2952833 0.1044859 -0.1667516 -0.07049899 -0.2454834 0.2487465 -0.4503207 0.01483926 -0.03244401 -0.1603848 0.2107718 0.1825467 0.207388 0.2334085 0.3154966 0.1569509 0.06741646 -0.05455448 0.02058966 -0.2341966 -0.08787587 0.0235421 -0.3314759 -0.4966076 0.06764834 -0.01859698 -0.2115567 -0.1717503 0.1644202 -0.4228964 -0.1868162 -0.4626153 -0.6444365 -0.308589 -0.04827565 0.1469078 0.1502451 0.3311224 0.2293025 0.03472727 -0.07399585 0.2071549 0.0249121 0.04442471 0.0904557 -0.05940115 -0.008710652 0.05576275 -0.0268745 -0.1007563 -0.1888823 0.2125113 -0.2707208 -0.3397349 -0.7067364 -1.233391 -1.029733 -0.6292731 -0.4457547 -0.143793 -0.1070512 -0.02234402 -0.008925535 -0.1131038 0.01618289 0.171237 0.2390777 -0.1010377 -0.0137081 0.2185806 0.1600063 0.1469774 0.1385921 0.04167717 0.3756877 -0.07761316 -0.4512539 -0.3553536 -1.194031 -0.9769498 -0.8627296 -0.5947143 -0.2897533 -0.1720072 -0.08947524 -0.1102059 -0.258326 -0.1048111 -0.05201718 0.06182481 -0.2647887 -0.05159623 0.3848142 0.1532999 0.1072108 0.1623773 0.2183799 0.3409566 0.2779886 -0.3092698 0.2365772 -0.4497939 -0.5222265 -0.4002885 -0.1864595 -0.2100693 -0.1848981 0.08254285 0.1430554 -0.09990953 -0.06173375 -0.1804977 0.2658488 -0.2444737 -0.002270288 0.4645652 -0.07599434 -0.03848664 0.09254411 -0.06574409 0.1357544 0.2431191 -0.2500315 0.2128223 -0.1862795 -0.1691797 -0.2702312 -0.05976193 -0.2032493 -0.01938309 0.1051628 0.07303148 -0.1558375 -0.01595211 -0.04780599 0.21856 -0.0930365 -0.08881929 0.08318179 -0.03749003 -0.3009281 0.07368215 -0.1721901 0.3208131 0.3616079 -0.1121386 0.2537251 0.05785157 -0.2717603 -0.05661537 0.06083623 -0.008891798 -0.02733949 0.3862955 0.1591983 0.1255905 0.04317572 0.07556989 0.482507 0.08777525 0.1016792 -0.08561524 0.04652004 -0.2621386 -0.06222365 -0.06397148 0.04426857 0.3397245 -0.1468411 0.1242945 0.09541898 -0.4533045 -0.4067932 -0.1383537 -0.2193406 -0.09121455 0.1336019 0.1345978 0.03616257 -0.0456945 -0.172019 0.2670718 -0.1138051 -0.08789425 -0.3997557 0.3986694 -0.4255705 -0.1099158 -0.2057296 -0.1302463 0.5305954 0.4477065 0.5744487 0.420482 -0.5078859 -0.04236865 -0.09924421 -0.08959524 -0.1495771 -0.04538777 -0.06702398 -0.1461064 -0.1580121 -0.3598497 0.158886 -0.2386291 -0.1765117 -0.6462693 0.2773387 -0.1915983 -0.02327567 -0.191502 -0.5433978 1.371646 1.910226 1.30296 0.7700061 -0.3334891 0.08652905 -0.1919257 -0.02111815 -0.08765178 -0.2768774 -0.2532819 -0.1227265 -0.2797358 -0.5089847 -0.1419354 -0.3228505 -0.2309128 -0.8318935 0.1029583 -0.3049232 -0.02362226 -0.3047826 -0.7450396 -0.2305224 2.790885 2.001304 1.291021 1.339801 2.259953 1.580598 1.401726 0.7268708 0.09567625 0.005104681 0.6933318 0.5672902 0.04486787 0.438831 0.01324674 0.2153117 -0.7960517 1.10943 0.238498 0.4221365 -0.1231653 -0.7172913 
  -0.03762162 -1.173546 -1.57502 -1.865644 0.9184268 2.059992 2.196225 1.095857 0.4211449 -0.4248615 0.4272706 -0.2229646 -0.7179316 -0.7505211 -0.6384942 -0.07256309 0.2725966 -0.05418624 0.06033658 0.3352547 0.07875793 0.3649349 0.0195602 0.07795781 -0.3878621 -0.3422612 -0.5091429 0.6176498 0.5395792 0.3877629 -0.2469911 -0.06103707 -0.5704426 0.1767476 -0.1716541 -0.03038579 0.08230398 0.0649196 0.162294 -0.01137636 -0.03188607 0.1996721 0.08269908 -0.1879683 -0.02460621 -0.2879105 -0.1149826 -0.6119837 -0.1757515 0.1145458 0.953153 -0.02119306 -0.1537716 -0.3756811 0.1391793 -0.06959589 0.363695 0.04706036 -0.08319291 0.1120779 0.1804027 0.1581267 -0.2347497 -0.03875054 0.1724014 -0.07090595 -0.1177268 0.2248528 -0.06847001 -0.1263251 -0.3762529 0.2706874 0.9542494 0.7403584 -0.74612 -0.7864659 -0.6465859 0.07750523 0.2436487 0.1164999 0.08904403 0.0427751 0.2073526 0.457513 0.1749489 -0.3118056 0.005601361 0.212335 -0.1860159 -0.2601927 0.1761024 -0.09225027 0.01010598 0.006213078 1.001598 1.731226 0.4486481 -1.250095 -1.173769 -0.8526309 0.05431867 0.4055364 0.04359189 -0.07242583 -0.071931 0.2190104 0.3530897 -0.1285087 -0.5909932 0.1123037 0.3453684 -0.1559227 -0.1564781 0.04872844 -0.03615559 0.1444524 0.6044968 1.405576 1.913196 -0.3850163 -1.886745 -1.443169 -0.861913 0.08692909 0.396861 0.01610731 -0.1688066 -0.07173751 0.4139168 0.2267137 -0.03269159 -0.7323472 0.1754499 0.2287688 -0.2695509 0.07077444 0.3805149 -0.3691322 0.2689441 1.057121 1.658939 1.528192 -1.204231 -2.120683 -1.203072 -0.7806396 0.3432054 0.3846974 -0.1356603 -0.1806952 0.2042362 0.3748365 0.1979005 -0.04945555 -0.5044169 0.04542042 0.3033674 -0.3378487 0.09735481 0.2739609 -0.3760179 -0.08663715 0.9323299 1.594558 1.111444 -1.344011 -1.743789 -0.7966855 -0.5781003 0.5123707 0.2935421 -0.2905443 -0.1350736 0.2234171 0.4595673 0.28974 -0.01142532 -0.258985 -0.08939295 0.01544254 -0.2734285 0.1679886 0.3543369 -0.3537736 -0.3089583 0.61305 1.073648 0.7189545 -0.9187157 -1.204269 -0.5490626 -0.4909008 0.2493754 0.09294613 -0.2537669 -0.1140199 0.2967229 0.5542156 0.1181041 0.1088143 -0.03018151 -0.09006122 0.00339413 -0.2355441 0.1401062 0.223885 -0.4759917 -0.3600678 0.3487832 0.4772541 0.3565404 -0.3371505 -0.4347874 -0.1616342 -0.4044142 0.1361901 -0.1578596 -0.1868787 -0.1532086 0.3084668 0.3020449 0.08007038 0.02447901 0.05467423 0.2148426 0.01088933 -0.1784594 0.0541697 0.3603696 -0.3546673 -0.3422624 0.06966987 0.4337113 0.4506989 -0.00199552 -0.3355594 -0.2982765 -0.4399166 -0.104295 -0.2055123 -0.232547 -0.1239553 0.1760205 0.09507178 0.1149323 0.01194638 -0.00466614 0.2720399 -0.1495933 -0.06402229 0.09840003 0.2446504 -0.1569213 -0.2358235 0.03427654 0.289954 0.134752 0.4427876 0.1478945 -0.03251572 -0.1258758 -0.1330294 0.04277445 -0.2230282 0.05030708 -0.01207847 -0.007336557 -0.008877094 -0.07100341 -0.1962181 0.2111953 0.1153446 -0.1317161 -0.2682637 0.1087423 0.001057254 0.07524397 0.09698563 0.08336524 -0.105553 0.4797395 0.2589939 0.1600488 -0.1979047 -0.2573228 -0.05346968 0.04187939 0.1367617 -0.04489881 -0.2430928 -0.07531241 0.03587666 -0.1426447 0.1413938 -0.1725261 -0.04644354 -0.1003668 0.1052574 0.08018759 -0.1639072 -0.06105587 -0.2848485 -0.4013355 0.5966796 0.3512385 0.4268688 0.09503707 -0.1079438 0.02403101 -0.01360939 0.04457905 0.1738407 -0.2184175 -0.03888147 -0.02658574 0.01489366 -0.035936 -0.008787569 0.08944826 -0.06849942 -0.1516035 0.2110491 -0.006096027 0.2273094 -0.2010739 -0.3207001 0.5849909 0.4009455 0.3644736 0.03441655 -0.6325476 -0.1428721 -0.1100635 -0.02957522 0.235022 -0.1682301 -0.1278093 0.07355045 0.1446241 -0.2664292 -0.05209115 -0.04433306 -0.2151345 -0.1954895 0.06726386 -0.2200766 -0.6085061 -1.140999 -0.9795166 0.6146269 0.8042203 0.9509065 0.8679984 0.02037934 0.03479951 -0.01448737 -0.07082554 -0.02259674 -0.3094958 -0.06945334 -0.06673612 0.3115808 0.01242585 0.2204633 0.3167605 0.2005145 0.08699047 0.1999576 
  0.04575494 -0.4682159 0.2774493 0.5431686 -0.6564577 -0.574347 1.841384 -1.482588 0.6958994 -0.07976428 -0.2025699 0.3175357 -0.4944588 -0.08201903 -0.1839074 -0.07718907 -0.02269506 0.00791315 0.008201769 0.1300013 -0.2018943 0.05015361 -0.1869601 0.2440866 -0.07296402 -0.1648822 0.4070131 -0.205898 -0.6764401 1.379424 -1.324932 0.7208467 -0.2297903 -0.1370792 0.4020826 -0.2970626 0.03582992 -0.1056138 0.000284379 0.1218565 -0.03343827 -0.08079658 0.0458895 -0.09116879 0.07077182 0.05009995 0.09927345 -0.1487012 -0.2662732 0.5049514 -0.381166 -0.5016232 1.41187 -1.38904 0.8406125 -0.3060974 -0.1170262 0.3932599 -0.3252008 0.06892335 -0.09628394 0.05722431 -0.02793555 0.1017353 -0.1395663 0.09719756 -0.1190118 0.1412871 -0.04073995 0.1765469 -0.2970417 -0.3284875 0.5918524 -0.2327823 -0.4839771 1.323884 -1.413825 0.931999 -0.3109501 -0.06036555 0.2521462 -0.3346742 0.1522613 -0.1159924 0.0449895 0.03062833 0.01208598 -0.02120882 -0.01530538 -0.1785604 0.06568908 0.06091056 0.2168676 -0.258389 -0.34037 0.7833261 -0.5089596 -0.5760581 1.646048 -1.624263 1.032813 -0.3384363 -0.07598405 0.3347861 -0.3248122 0.1426806 -0.03500695 0.04712015 0.03387173 -0.01217287 -0.07280351 0.0161702 0.04469596 0.1048137 -0.07258064 0.2999048 -0.2028435 -0.3767768 0.9572572 -0.5781431 -0.7155434 1.662561 -1.662993 1.000567 -0.3254681 -0.1099637 0.3384319 -0.3961609 0.2159839 -0.04808305 0.03139934 0.1125597 -0.03722006 -0.08852872 0.07821894 -0.09338475 0.01040999 0.007630598 0.3238696 -0.3539782 -0.378181 1.078222 -0.6249862 -0.699569 1.77178 -1.840168 1.082435 -0.2913149 -0.109436 0.3209389 -0.348407 0.08973246 -0.01783191 0.1659171 0.05584742 -0.04245197 -0.1823655 0.1376303 0.005099708 0.1057966 -0.03705779 0.1228179 -0.220708 -0.3969735 1.342445 -0.6842527 -0.7585893 1.881504 -1.984198 1.111897 -0.29606 -0.04638484 0.2662655 -0.2514907 0.1186014 -0.1045602 0.02600397 0.1764384 -0.01121279 -0.2386587 0.09895167 -0.1155773 -0.03302256 0.007046242 -0.03393286 -0.1962307 -0.3890158 1.241536 -0.7092245 -0.5346823 1.833585 -2.152948 1.153689 -0.4569362 -0.110072 0.3913807 -0.3271722 0.08472524 -0.0650697 0.01589967 0.1079016 0.01018904 -0.2008634 0.19254 -0.1637001 -0.06682394 0.08324783 -0.08299704 -0.103677 -0.2819236 1.279938 -0.91804 -0.3812978 1.995004 -2.231198 1.125595 -0.4939569 -0.06496362 0.3502299 -0.2529636 -0.02668122 -0.1820974 -0.000739173 0.1967962 -0.1234078 -0.05151053 0.1636426 -0.08030743 -0.06232586 0.07365957 -0.01261113 -0.2396697 -0.2502045 1.241486 -0.9876952 -0.3218374 2.109071 -2.342019 1.079006 -0.6167283 -0.02043098 0.39126 -0.3826748 0.09148621 -0.1176835 -0.1011162 0.2083585 -0.02855645 0.02195398 -0.04992118 -0.1141761 0.05079195 0.04746249 -0.1116539 -0.1376083 -0.01777513 1.311742 -1.286064 -0.32621 2.22441 -2.3997 1.08537 -0.5407569 0.133763 0.2963201 -0.2501035 0.02364972 0.01091293 0.07639377 0.1170161 -0.009853497 -0.01006306 0.04098688 -0.1463833 -0.01271686 0.09177743 -0.2194328 -0.02847915 0.200033 1.062839 -1.498663 -0.3121317 2.292952 -2.255953 1.058978 -0.3823888 0.1191389 0.3222585 -0.3212774 -0.06966898 -0.009274643 0.08229663 0.1864864 0.000615731 0.0959975 0.1326655 0.08899289 -0.1870102 0.1318187 -0.3593838 -0.1174921 0.4237726 0.9826843 -1.517329 -0.3732732 2.385644 -2.172614 1.056377 -0.2384473 0.05246871 0.270303 -0.195157 -0.002057652 -0.013067 -0.01635512 0.1731826 0.01084584 -0.01219784 -0.01330438 -0.1307652 -0.04519294 0.01168912 -0.2139397 -0.2314022 0.458208 0.9213322 -1.491854 -0.5061243 2.427835 -2.190025 0.8945453 -0.227763 -0.1664224 0.2572064 -0.2452014 -0.1064039 0.03588605 -0.09904644 0.05023462 -0.22702 0.09131715 -0.1001098 -0.1838401 -0.07975116 -0.03672902 -0.7486912 -0.8418028 0.719662 1.762431 -1.866877 -0.5204954 3.066819 -2.307781 0.7636536 0.04775582 -0.1909511 0.296829 -0.3065304 0.1305991 -0.06909326 0.1815372 0.03422548 -0.07054743 0.2901001 0.08793494 -0.2040147 0.1404909 -0.08416992 
  -0.07489906 0.02680515 -0.1659258 -0.2862369 -0.2899555 0.3941097 0.04095662 -0.1936968 -0.1360938 -0.08009245 -0.4259611 -0.4359838 -0.1810865 -0.638927 -0.7402918 -0.1938411 -0.6197936 -0.8806266 0.9854711 -0.01961097 0.1520575 0.427545 1.17998 -0.05473131 -0.4283801 -0.3454539 -0.1919427 0.05295254 0.4617544 0.4200158 0.1414788 0.2025033 0.1123838 0.1973474 0.2554983 0.4519581 0.03480984 -0.1929234 0.3534881 -0.1506215 -0.4407693 0.3673148 -0.285457 -0.1041971 -0.04993082 0.6161282 0.04722255 -0.2891034 -0.1930664 0.03716882 0.07008214 0.1588335 0.1915775 -0.20283 0.1231021 -0.1951097 -0.285221 0.1469078 0.06718202 -0.2897726 -0.3662512 -0.03877595 -0.5308667 -0.417681 0.3975247 -0.4420442 -0.03316182 -0.1700512 0.6896973 0.1797034 -0.1855736 -0.01462421 0.1339139 0.02913901 0.03902478 0.02371589 -0.2274624 0.02751309 -0.1213069 -0.2535715 0.1354342 0.1214704 -0.1491228 -0.3310185 -0.05929349 -0.3032396 -0.3702409 0.2408458 -0.1511376 0.1358099 -0.01365952 0.7346408 0.03171705 -0.3292898 -0.277439 0.2057509 0.1616797 -0.1109358 -0.1225337 -0.3757898 0.2600832 -0.1558046 -0.1341269 0.1496766 0.07730103 -0.1217247 -0.3062462 -0.1291393 -0.247252 -0.1872355 0.5869541 -0.04066677 0.3418379 0.3664202 0.8683948 0.2407094 -0.3286144 -0.3092169 0.2287567 0.1618145 -0.003106205 0.04427681 -0.2498266 0.2190848 0.1369139 -0.06483335 0.3670332 0.2023116 0.01080136 -0.02800342 0.03866135 -0.1523019 -0.02566753 0.7747088 0.4028443 0.5365194 0.3923984 1.016773 0.2981149 -0.2127795 -0.3532411 -0.01352279 0.2413003 -0.03272323 -0.1137472 -0.2349391 0.2883642 0.09368459 -0.06511877 0.3830636 0.08813994 0.0002691583 -0.09370755 0.3680682 -0.04647119 0.1647285 0.9216437 0.5023996 0.743706 0.3200931 0.9420713 0.19998 -0.2033753 -0.3491805 -0.0173064 0.1416353 -0.01722494 -0.1509739 -0.1487662 0.2486551 0.1788206 0.02461397 0.2929397 0.1007206 0.07733678 0.01002816 0.3785121 0.138023 0.3023377 0.8137729 0.2477448 0.625184 -0.02618397 0.5791028 0.01340024 -0.3917793 -0.350598 0.1974117 0.1280275 -0.03921319 -0.1417595 -0.1668248 0.2243957 0.2192131 0.2567871 0.2512997 0.0219577 0.1132037 0.0559468 0.5408177 0.1030183 0.2188816 0.6831865 0.2739232 0.3716445 -0.5084952 0.1256202 -0.1919705 -0.2196701 -0.3499876 0.2296879 -0.0191469 -0.1948339 -0.1839013 -0.01173419 0.2145505 0.1686148 0.02558053 0.09751946 -0.08801851 0.09288527 0.04608006 0.2886104 -0.1621725 0.08419704 0.1519488 -0.2130243 -0.07744195 -0.8852175 -0.3066126 -0.3080675 0.005841762 -0.2665186 0.2183137 -0.135335 -0.05537665 -0.08424344 0.1147978 0.4173679 0.1452112 0.04658676 0.1663923 -0.1654609 0.09211858 0.2098773 0.5347669 -0.0151691 0.1009814 -0.1083754 -0.4725107 -0.3629288 -1.072928 -0.5096911 -0.04908698 0.2302299 -0.1832742 0.4244343 -0.03301602 -0.06811488 0.1064097 0.1970902 0.3730596 0.1589428 0.01160494 -0.06278176 -0.1614983 0.0561665 0.0804913 0.6002169 0.004625058 0.04381131 -0.3826943 -0.5364648 -0.5623819 -1.250357 -0.9266101 -0.1502128 0.4228953 -0.1157163 0.5279155 -0.1251429 -0.0480515 0.06863181 0.1287411 0.3382253 0.1505399 0.05383353 -0.1014515 -0.08281393 0.2279654 0.07995365 0.5264702 -0.01571405 0.1133807 -0.7159372 -0.7619394 -0.8815541 -1.282421 -0.8758191 -0.3245169 0.522786 -0.0785908 0.6741852 -0.065787 -0.2766871 -0.02105118 0.1037152 0.06164872 0.1062601 -0.1357269 -0.1567715 -0.09198206 0.007102624 0.05455496 0.400185 -0.2381579 0.1792455 -0.5074582 -0.5632845 -0.5082377 -1.130745 -0.6514613 -0.1963134 0.7244173 -0.04933229 0.56488 -0.1211367 -0.3079443 -0.02145207 0.1662798 0.10614 0.2321127 -0.01492521 -0.06810348 0.2347692 0.2023037 0.1126158 0.5298134 -0.1493989 0.2612433 -0.04104324 -0.3201234 -0.5126778 -0.4903902 -0.328546 -0.4485784 1.670882 0.4891751 1.099849 0.2544032 -0.2800557 0.1502427 0.3419458 -0.003745699 -0.0919556 -0.4802938 -0.2196592 0.03576469 0.1647559 -0.2642223 0.3175134 -0.227353 -0.1069464 0.2713153 -0.0304991 -0.120177 -0.2625793 -0.04343455 
  0.3108571 -0.7870933 -0.1227781 -0.08639796 0.3160935 -0.3064824 0.2467884 0.4717197 0.1930504 0.09486982 -0.095939 -0.1933064 0.2122176 0.2060108 0.3737664 -0.1944561 0.1037926 0.2481291 -0.3919209 -0.0711922 -0.0448528 -0.6649477 -0.5069606 0.2981223 -0.3136142 0.0956146 -0.02933096 0.03843802 -0.2839248 -0.1113857 0.226678 0.1590312 0.1704163 -0.4047512 -0.1645278 -0.09222821 -0.122918 0.2040522 -0.1351127 0.1174827 0.224733 -0.2924415 0.08500305 0.5283427 -0.1278439 0.1953346 0.211787 -0.2027464 0.1203767 -0.1533129 0.2156992 -0.1780531 -0.1124269 0.08380958 0.3275003 0.1198457 -0.2060789 -0.1225039 0.1206235 -0.1376784 0.02179652 -0.2663111 0.005904883 0.2015009 -0.302248 -0.1486164 0.1522744 -0.2069933 0.1442536 0.1954191 -0.2506237 0.202168 -0.1979315 0.0817065 -0.1938146 0.01824816 0.01598964 0.1716207 0.2712838 -0.03954975 0.01981566 -0.1574706 -0.09339504 -0.09994023 -0.2187854 0.09429946 0.210627 -0.144171 -0.2850704 0.2961507 -0.349092 0.04322495 -0.05552984 -0.08988942 0.2588767 -0.2875263 0.09867009 -0.0125596 0.2103341 -0.1285101 0.1471954 0.4158397 0.00594137 -0.09568153 0.02429769 -0.09355178 -0.264884 -0.05302741 0.2291531 0.1902972 -0.2732742 -0.1093861 0.2925723 -0.3131725 -0.1130037 -0.2094225 -0.09427519 0.08649717 -0.2066347 0.3374236 0.0716968 0.133065 -0.247433 -0.05777432 0.3594761 0.429463 0.239106 -0.03404686 -0.0718798 -0.1513436 0.01071965 0.2090074 0.0275577 -0.2172673 0.02566896 0.2089017 -0.2417466 -0.1450983 -0.2265513 -0.05050502 -0.1077495 -0.1335653 0.2489504 0.07628472 0.1492713 -0.2637835 -0.1546118 0.3512548 0.4812106 0.3108341 -0.1230029 -0.00405148 -0.04049089 0.06788374 0.1177813 0.07517312 -0.1372468 -0.1993264 0.07487018 -0.2593573 -0.1689522 -0.2395661 0.09039739 -0.1457868 -0.1267411 0.3138103 -0.02527133 0.09130151 -0.2914077 -0.1757945 0.3676142 0.4487775 0.3797172 0.05040545 0.001999566 0.008827802 0.03543785 0.2047532 0.0009866008 0.05616174 0.02290699 0.1872132 -0.3932633 -0.08480493 -0.1648304 0.2528894 -0.2052197 -0.05703185 0.05419771 -0.1307181 0.05471564 -0.3616341 -0.1835984 0.03563565 0.5281562 0.2427791 -0.1157136 -0.02124958 0.08621799 0.002278077 0.3482974 0.1863976 0.005835444 -0.1722339 0.1067226 -0.4430769 -0.04471207 -0.032726 0.4132654 0.01708103 -0.1542564 0.01452771 -0.394225 0.1089238 -0.1673802 -0.3319229 -0.2097205 0.2964669 0.0929426 -0.1490627 0.1524749 0.08052091 0.1482535 0.2282432 -0.1013356 0.09376593 -0.1379731 0.2247442 -0.3934209 0.04631148 0.04618353 0.4849382 0.4721416 0.02133643 -0.1505474 -0.4715206 -0.1346939 -0.1992638 -0.4282427 -0.4594052 -0.1440515 0.04082805 -0.1222928 0.03054542 -0.1342829 0.168113 0.1328193 -0.1351831 0.05941287 -0.1839542 0.2802827 -0.4136201 0.3124003 0.1121423 0.7921166 0.6416555 -0.03163043 -0.5213925 -0.7205281 -0.3112034 -0.5741044 -0.3168639 -0.6499023 -0.5372433 -0.3743948 -0.4444703 -0.2481942 -0.3625335 -0.1023396 -0.3150719 -0.4407511 -0.2791296 -0.7503774 0.1403624 -0.5330719 0.3644299 0.094312 0.6010596 0.5668918 0.002784418 -0.421192 -0.6868503 -0.4822928 -0.5606797 -0.4225113 -0.474437 -0.6084413 -0.06696472 -0.1758473 -0.06776191 -0.6009291 -0.0001448304 -0.2032161 0.0621228 -0.2643529 -0.4849459 0.1173566 -0.1992585 0.766037 0.05416642 0.4709131 0.4256081 0.3653 0.0008019494 -0.4843397 -0.8542701 -1.030917 -0.5611534 -0.1482792 -0.08470266 0.2999184 0.3439946 0.1354233 -0.3507013 -0.1762182 -0.348298 0.6117563 0.5709211 -0.1539544 0.6851353 0.1810903 1.378533 0.06702989 0.1382902 0.2742331 0.4147376 0.3523309 -0.2974594 -0.8469073 -1.315159 -0.5591372 0.422481 0.8447774 1.211876 1.005251 0.4603095 -0.1009349 -0.09746053 -0.01509491 1.270958 1.063459 0.4689175 1.269314 1.004053 1.909157 0.4168988 -0.1978105 0.09449507 0.8655201 0.8871926 -0.378983 -1.525716 -2.144991 -1.205317 0.8732479 2.061679 1.919285 1.420714 0.6347831 0.3952527 -0.3161796 -0.3663008 0.7144472 -0.1408452 -1.414099 -0.2394611 -0.6616988 0.5147549 
  -0.40934 -0.5030221 -0.9080931 0.01610217 0.4809025 1.318405 -0.565573 -0.6548127 -0.5697724 -0.3353166 -0.1442669 0.06942149 0.2484393 -0.1618808 -0.2277377 -0.1759037 -0.1562678 0.19221 -0.1983077 0.1641235 -0.3904722 0.3129443 0.4983577 0.05872181 0.3601227 -0.1961206 -0.1630637 0.0690847 1.198297 0.07532406 -0.1421697 -0.09049039 0.1290483 0.2267915 0.02707893 0.1492904 -0.1862246 0.0338419 -0.02682 -0.02536358 0.1204211 -0.0668022 0.09083071 -0.2645534 0.0703429 0.117034 -0.01495291 0.5344207 -0.1749437 -1.081335 -1.072844 0.7610922 0.3831107 -0.07536241 -0.1939933 0.1625246 -0.1066813 -0.05435864 0.04228893 -0.254373 -0.07390796 -0.207487 0.04822306 0.05800053 -0.1633578 0.1408352 -0.1532224 -0.008769266 0.09475484 0.397799 1.201981 0.1795791 -1.648501 -2.049815 0.5332865 0.7302493 0.2126443 0.03736641 0.3318734 -0.01743275 -0.05172852 0.1160104 -0.02914311 0.04691611 0.01237652 0.09267408 -0.01071895 -0.147745 0.2187718 -0.07958555 0.001013564 0.0669142 0.6211504 1.346279 0.5075214 -1.789728 -2.29718 0.5098593 0.9703168 0.3935473 0.3968153 0.2630122 -0.1649824 -0.05465474 0.2355786 -0.09453839 -0.01447511 0.07189232 0.2094517 -0.1292693 -0.2604193 0.1769937 -0.1254959 0.0468563 0.08523884 0.7817222 1.019063 0.4326469 -1.601689 -2.188717 0.3460399 1.008585 0.5133834 0.2810201 0.2548773 -0.1332661 -0.06503194 0.3119196 0.002789647 0.2585839 0.08493874 0.05752513 -0.276659 -0.1758462 0.1436923 0.192248 -0.2117204 0.1733771 0.5251958 0.5550011 0.2392997 -1.288686 -1.893465 0.3554558 0.9719896 0.5689618 0.3521646 0.1985187 -0.07907069 -0.08654844 0.1474347 0.05914696 0.2818613 -0.04103351 0.1702901 -0.2510021 -0.03323247 0.07329185 0.2386473 0.1065972 0.05815815 0.5251704 0.242508 0.009346082 -0.846316 -1.371305 0.005574083 0.7452273 0.4319818 0.2090551 0.1977713 0.07116272 -0.115132 0.09581272 0.1761796 0.1366983 0.1942277 0.0001880678 -0.1038734 -0.09479956 -0.1640417 0.02767087 0.1745838 -0.04918734 0.2920319 0.2211414 -0.05820023 -0.3060779 -0.7787236 -0.08796958 0.4946555 0.3736089 0.04758326 0.02133948 0.1592304 -0.05591449 0.06410308 -0.07770801 0.01200111 0.1242057 0.07012857 -0.2297623 0.1025231 0.03251947 -0.0513757 -0.007334636 -0.07103983 -0.01986548 -0.05284425 0.02824546 0.1651841 -0.344551 -0.1893931 0.08715626 0.2720485 0.03238513 -0.1288037 0.1490248 -0.2083024 -0.05419553 -0.07738299 -0.07412213 0.01465231 0.09559154 0.01042325 0.02283745 -0.0122392 -0.2836195 -0.07455212 -0.2261055 -0.2899064 -0.1096314 0.0133496 0.4577073 0.1494689 -0.3107638 -0.01115426 0.2913705 -0.08780255 -0.05279281 0.2284889 -0.08128551 -0.01683103 -0.06121767 -0.03337594 -0.115089 0.02451245 0.07577982 0.1817858 0.2593895 -0.2391328 -0.01697652 -0.2749996 -0.5797636 -0.1497114 -0.02307214 0.578037 0.4005764 -0.309058 -0.3023278 0.2198724 -0.1726295 -0.2278298 0.3190152 -0.0467053 -0.04262885 -0.09260911 -0.1471218 -0.09991552 -0.1187288 0.127973 0.27961 -0.001405618 -0.2255121 -0.02594233 -0.1543281 -0.4784522 -0.1787277 0.006295961 0.4780285 0.5398158 -0.3324547 -0.4727457 0.02102357 -0.08511302 -0.05467512 0.03629538 0.1531043 0.04275267 -0.1436444 0.03640248 0.07536794 -0.03239226 0.148714 0.2438801 0.0798554 -0.06785807 0.2886714 -0.03944202 -0.3630854 -0.04064012 -0.1817612 0.2694993 0.4406513 -0.3227978 -0.4795035 0.2612743 -0.08621051 -0.1610182 0.2054616 0.0701924 0.1578628 -0.1356414 0.1102651 0.05912676 0.04264985 -0.08602805 -0.009791473 -0.06520509 -0.02674715 -0.008751052 -0.05789803 -0.07350537 0.3176257 -0.299353 0.36921 0.4832981 -0.2761421 -0.6546701 0.3570749 -0.02120173 -0.1699545 0.2147064 0.06661338 0.03193792 -0.01692263 0.107089 0.2103383 0.1346979 0.01771676 0.2465655 0.1029725 0.004131929 0.151815 0.05350769 -0.9044815 0.1104752 -0.1664455 0.3962678 0.8270719 0.2147058 -0.7845278 0.01711485 -0.3203888 -0.422258 0.05309343 0.2451897 0.1299014 -0.3580685 -0.2192709 0.09534942 -0.1003737 -0.6331183 -0.1450408 0.04632841 -0.1778052 0.1077593 -0.4738619 
  0.4075547 -1.458431 -0.3263389 0.815478 0.4369261 -0.1098453 0.07482395 -0.005054444 -0.1146375 -0.01172523 -0.03824203 0.1140796 -0.02854855 -0.05509041 -0.1284251 -0.09593295 0.1486937 -0.132626 -0.05959165 -0.01121647 -0.04660434 0.01611338 -0.1744164 -0.5464901 -0.4789359 0.3609662 0.4175261 0.3519118 -0.2450749 -0.1365365 0.0004434609 0.04472777 0.04696281 0.01582825 -0.04846757 0.0556838 -0.05918527 -0.01282184 -0.01161735 -0.01467866 0.100463 -0.07009331 0.1537673 -0.109875 0.04712972 0.0008709399 -0.5536934 1.677908 0.9958643 -0.7881945 -0.1226739 -0.07217678 0.02936493 0.04841163 -0.05967911 0.2154969 -0.05782754 -0.09080929 0.0738738 -0.009132822 0.01474417 0.12911 -0.03256258 0.2208071 -0.155675 0.01622867 -0.007982144 0.02338251 0.07368909 0.7321306 3.286027 0.5660132 -2.251404 -1.036417 -0.01184067 0.05472736 0.2233432 -0.02608188 0.121533 -0.09582568 0.233969 0.008496542 -0.07449041 -0.0148827 0.129195 -0.03799609 0.06574988 0.09366033 0.05143109 0.05110537 0.04973903 0.03996578 1.297656 3.314166 0.02367193 -1.854871 -0.8733893 0.09138691 0.04659436 0.1421578 -0.01799795 -0.1105046 -0.005950073 0.0756665 -0.05472498 -0.01815093 -0.07537965 0.09667943 0.005469411 -0.05503589 0.07819098 0.08745204 0.004990953 0.01660383 0.02729355 0.4419288 -1.28231 -0.8246976 1.499278 0.7658796 0.03923781 -0.137524 0.1195331 -0.1861426 -0.1465044 -0.03444093 0.03047717 0.07288791 0.0532972 0.1474857 -0.1617497 -0.03699236 -0.108556 -0.01801101 -0.1168965 -0.1197896 0.04539749 0.03665563 -1.102651 -7.563468 -4.38711 2.353296 1.46654 0.1777042 -0.1537123 -0.3100961 0.01493808 -0.02687243 -0.04418772 -0.2630398 -0.06337318 0.0446732 0.1371205 0.03316893 -0.137244 0.1405367 0.01876208 -0.2742457 0.1094661 -0.002505997 -0.2350845 -0.008015998 -5.79215 -4.039066 1.342861 0.8445601 0.2969894 0.09146193 -0.1970555 0.1882994 0.03330111 0.1192909 -0.04431919 -0.01350056 0.07436939 0.09233517 0.04828149 -0.02694288 0.05288277 0.05766707 0.008714845 0.02878813 0.1173099 -0.1165023 0.8471956 1.274269 1.029176 0.0220663 -0.4823269 -0.1183117 0.2288342 -0.07103097 -0.02423787 0.101888 -0.02116903 0.1239921 -0.05926968 -0.03889174 -0.08875829 0.1346681 0.008961294 -0.06923455 -0.01222819 -0.005681831 -0.009238633 -0.1825971 0.1194194 -1.616099 3.909796 5.096245 0.3284094 -0.8843825 -0.3422361 -0.03599783 0.1319539 -0.1189481 -0.05935308 -0.06594232 0.1026196 0.06220243 -0.01385108 -0.1712545 -0.002288683 0.01480616 -0.005138652 -0.0645283 0.04720046 -0.01963685 -0.1161176 0.0834808 -3.992057 1.729251 4.795007 0.5122541 -0.6071294 -0.06374145 0.1212771 -0.1148819 -0.102385 -0.03219027 0.02764114 -0.04408828 -0.07163767 -0.06688501 -0.007055847 -0.1658768 -0.04552137 -0.03452105 -0.02403101 0.05631256 0.0636759 0.02001901 0.1039263 -0.3877957 0.1777223 -0.0704898 -1.452735 -0.3914918 0.1424302 0.1104411 -0.04810059 -0.09993671 0.0436259 0.03010992 -0.04534132 0.03811271 0.01227691 -0.08657218 -0.03387624 0.03438962 0.05953999 -0.005006925 -0.06743181 0.0898058 0.06372896 0.05781037 2.733055 1.632597 -1.928774 -1.905826 -0.2889709 0.3080965 0.07223027 0.1094445 0.03452228 -0.01018025 0.05269967 0.01544965 0.006838682 -0.1303863 0.1106542 0.04817174 0.134721 -0.0405047 0.00372785 0.03617421 -0.07203829 0.0302136 0.1152168 2.538723 0.5772442 -1.975293 -0.6125357 0.2834431 0.05768855 -0.07258385 0.04056089 0.2035653 0.05381341 0.08686574 -0.05199836 -0.007018836 -0.02335093 0.1119073 -0.06580298 0.1401598 -0.01878851 0.08605162 -0.02529451 -0.01421362 -0.06274199 0.02518532 0.5321792 -0.7304795 -0.9173544 0.9598312 0.404443 0.2501669 -0.1561225 0.2150766 -0.0269784 -0.05667787 -0.0024386 -0.02741702 0.05451806 -0.0513228 0.03526087 -0.1279402 0.02832047 -0.08359534 0.02288137 -0.07288864 0.1169135 -0.1065527 0.05417401 -0.6958591 -1.048469 0.7115515 1.0737 -0.07052262 -0.1576738 -0.1329899 0.02228688 -0.1770758 0.02367658 -0.1417613 0.02026768 0.08107444 -0.05499117 0.01408366 0.04656672 -0.06230236 0.006318442 -0.03410802 -0.02398021 0.09301316 -0.07006028 0.0610076 
  1.074336 1.658336 0.6321732 -1.26269 -0.9960517 0.0005255776 0.2876945 0.1840889 -0.134739 -0.2562053 -0.1464205 0.09907964 0.1131639 -0.08357795 -0.07952273 0.1095253 -0.2669317 0.2055383 -0.2147123 0.2026293 -0.03387536 0.1176563 -0.2339238 0.2737425 0.4099758 0.0458468 -0.8586829 -0.4519535 0.08337286 0.1216661 0.1237108 0.01862123 -0.1028347 -0.3358599 -0.1570849 -0.04418134 -0.09348518 -0.1490322 -0.02369676 -0.281192 0.112863 -0.2582884 0.001648582 -0.04245583 0.2317977 -0.1281612 -0.8545823 -1.381182 -1.128179 -1.306399 -0.7618719 0.1996541 0.03844306 -0.04586975 0.06067995 -0.122555 -0.4710938 -0.1748336 -0.01663182 -0.2005405 -0.1621271 0.05456267 -0.2388223 0.04256214 -0.09965661 0.2440596 -0.1322896 0.07366143 -0.1654872 -1.128714 -1.828005 -1.155758 -1.061183 -0.1691985 0.638764 0.08312515 -0.0788689 -0.001879788 -0.01023702 -0.08182722 -0.2786048 -0.04301064 -0.05727984 0.2668929 0.1418439 0.1121987 0.04259047 -0.137 0.1943269 -0.03938299 0.2929305 0.1395209 -0.8831432 -1.160059 0.160131 0.724549 1.070844 0.8138178 0.1111298 0.006219253 0.1060528 0.1393177 0.3295745 0.1106424 0.009163387 0.2490331 0.4933687 0.3271791 0.2360309 0.02261029 0.03178678 0.3259505 0.02762628 0.1987157 0.01666456 -0.2472408 -0.01033117 1.760706 2.750656 2.301952 0.4661221 -0.133711 0.04845137 0.0634106 0.3423575 0.4513462 0.1374517 -0.1141139 0.3569951 0.3962608 0.06546342 0.1080664 -0.1559716 0.2770907 0.02553698 -0.1634544 0.1926763 -0.1758402 0.767125 1.706881 2.039503 2.826206 1.234482 -0.8756158 -0.4959992 -0.06491596 -0.1963814 0.1406552 0.2883065 0.05146924 -0.2578385 0.1736401 0.09779514 -0.3362783 -0.3710152 -0.3812553 0.07686048 -0.2250734 -0.3411457 0.1009406 -0.4252518 1.539154 1.900152 0.9352349 0.7857905 -0.3885169 -1.137412 -0.2941854 0.03505373 -0.0535834 0.006220615 0.2345537 -0.02332798 -0.1586437 0.009414536 -0.1392489 -0.3553013 -0.2802033 -0.4130688 0.327553 -0.4473066 -0.4367781 -0.09408713 -0.7635675 1.000608 0.5750799 -0.4812336 -0.3632888 -0.7538563 -0.670989 -0.0184231 0.03591007 0.03282119 -0.1246679 -0.1913865 -0.08198548 -0.1505152 -0.07337975 -0.4539296 -0.3753143 -0.1626617 0.05774357 0.3307212 -0.2897194 -0.1784179 -0.007177901 -0.8520842 0.2445984 -0.1425669 -0.3325671 -0.8262779 -0.986556 -0.293135 -0.03590829 -0.06436448 -0.004697097 -0.2053932 -0.3900238 -0.139183 -0.01131707 -0.028932 -0.3916617 -0.06374875 0.1483732 0.2708479 0.008372896 -0.008072583 -0.1128157 0.03905432 -0.499258 -0.3368295 -0.2477193 -0.1589994 -0.5199401 -0.4489469 0.05342118 -0.147511 -0.06095696 -0.04136274 0.08761454 -0.4912972 0.00660952 0.02261277 0.04039146 -0.2922998 -0.06269454 0.09920608 0.3410283 0.1252642 0.1064978 0.2369122 0.1174366 -0.1579954 -0.6467382 -0.4311373 -0.2397012 -0.1426931 -0.050318 0.3847588 0.03687938 -0.1569941 0.08548344 -0.06802209 -0.1770498 0.04181706 0.08552691 0.1323981 -0.1578749 -0.03043738 0.1785185 0.02283255 0.101583 -0.06149185 0.2689312 0.06039114 0.2899598 -0.6360158 -0.2464402 -0.1606501 0.1435676 -0.02338894 0.318091 0.117998 -0.2108841 0.03192317 -0.08125546 0.10479 0.1897364 0.1678413 0.03487084 -0.04855857 0.2172784 0.05707239 0.1202911 -0.1680993 -0.09183747 0.2351311 0.05803936 0.5306851 -0.05007444 0.1056576 -0.2739326 -0.1023156 0.05375369 0.4631519 0.4077721 -0.1146452 0.04365918 0.06555932 0.02764937 -0.009777903 0.04832417 -0.178605 -0.05677243 -0.04171774 -0.2205509 0.1000357 0.05600865 -0.1354955 0.09423974 -0.2838668 0.3973633 -0.01026092 0.0714547 -0.2724453 -0.3298669 -0.2088703 0.07789865 0.08572517 -0.2183985 -0.1008542 0.04807888 0.08676452 -0.006111183 -0.07407557 -0.3628807 0.08777891 -0.02047366 -0.5433078 0.09793131 -0.1331051 -0.1193081 -0.1629988 -0.1791604 0.3628804 0.08960591 -0.1695637 -0.2255117 -0.1616701 0.53294 0.3305893 0.2833347 -0.0527096 0.2091905 0.2243254 0.3288729 -0.05511868 0.04919527 -0.2123011 0.5912907 0.2697756 -0.05030604 0.9392188 0.381705 0.001178982 0.2872561 0.2125904 0.8656226 
  0.2375244 -0.0591505 0.255337 -0.3599795 -0.221638 -0.005897384 -0.2391504 -0.2074842 -0.09628433 0.2831087 0.2709535 0.09074069 0.4242715 0.4410153 0.2722422 0.4720712 0.5282478 -0.585556 0.2376402 0.4795335 -0.6920642 -0.362177 -0.06278002 0.09534418 -0.1180953 0.0916344 -0.1835252 -0.2421575 0.06114087 -0.237782 -0.08787357 -0.0891505 0.2117106 -0.01085561 -0.06128579 0.06776189 0.1934293 -0.1422731 0.4214984 0.3590219 -0.4403432 0.06904431 0.3307655 -0.4087122 -0.05974824 -0.1068203 0.03648264 0.0180945 0.01382628 -0.1049464 -0.1697808 0.0791776 -0.3055635 -0.1055858 -0.06226026 0.2053757 -0.008269479 -0.1392348 0.08601616 0.2268809 -0.05482657 0.187717 0.3789047 -0.4892748 0.1390955 0.3668259 -0.3463148 -0.1969129 0.08885791 0.0349061 -0.06980892 0.07397939 -0.2009845 -0.06167104 0.1108036 -0.2678726 -0.05758936 -0.1156981 0.1588937 -0.02535606 -0.1517958 0.06466909 0.1268989 -0.2355333 0.324436 0.3592349 -0.4360604 0.1847047 0.3646766 -0.2656637 -0.1174621 0.0685364 0.2070255 0.01265506 0.04693482 -0.03800291 0.02308077 -0.01868157 -0.2949707 -0.09173578 0.01767798 0.007424304 0.01423632 -0.2466753 -0.08751454 0.2603976 -0.03174759 0.2921529 0.4008938 -0.3030702 0.06950904 0.263026 -0.110438 -0.2223185 0.1256463 0.02409999 -0.03830317 0.02286936 -0.1393285 -0.093696 0.09531712 -0.153 -0.2444412 0.02572043 0.08517607 0.05369375 -0.2410512 0.003169672 0.129713 -0.02681069 0.3220332 0.4491161 -0.2827601 0.1619919 0.3907293 -0.2243551 -0.08233453 0.08697852 -0.1318202 0.04740022 -0.09603543 -0.1120423 -0.06969317 0.09487706 -0.2211748 -0.0593597 -0.09964228 0.111842 0.0009558973 -0.2210057 -0.003557268 0.2632999 -0.1591007 0.2662155 0.4301407 -0.3917879 0.142934 0.3657134 -0.2600984 -0.02434474 0.05674165 -0.07077177 -0.07537091 -0.05117611 -0.2265347 -0.1394825 0.1381497 -0.2071455 -0.04842119 0.006713698 0.116831 -0.02734968 -0.2308078 0.1154142 0.2355996 -0.0251 0.3017517 0.5014035 -0.1573154 0.1466116 0.3359894 -0.1956892 -0.3043504 0.0200745 -0.08335625 -0.08116577 -0.07652263 0.04635958 -0.1786944 0.1267572 -0.1798237 0.03464734 -0.1097667 0.1001452 0.05314578 -0.2055443 0.08537363 0.3456207 0.01669283 0.2623474 0.4726343 -0.09640534 0.1724906 0.298712 -0.0891057 -0.1675386 -0.07856473 -0.1840901 -0.01242817 0.01340173 -0.01613751 -0.1626115 0.07733599 -0.2374999 0.03917281 -0.1259062 0.05373799 0.03731583 -0.2422704 -0.0249264 0.3039103 0.01556819 0.2165725 0.6215143 -0.2202435 0.2442711 0.3553462 -0.2334159 -0.2614951 -0.1495409 -0.09375685 0.1340326 0.1506615 0.03213209 -0.2144499 0.06046182 -0.2572418 -0.04535707 -0.02438171 0.01969793 0.1219898 -0.1855294 -0.02192594 0.356906 -0.09507772 0.4342275 0.5753046 -0.30345 0.09895684 0.3803646 -0.3189353 -0.1868378 -0.1545596 0.09692342 0.02927169 0.2164207 0.07754936 -0.1449733 0.1241079 -0.1987719 0.00431048 -0.1241674 0.04556867 0.07035118 -0.1026069 0.01735905 0.2659155 0.05472237 0.3097997 0.5307863 -0.3081057 0.1292987 0.3559432 -0.3212935 -0.1978744 -0.2229997 0.1011991 0.2234636 0.2822975 0.07439251 -0.02894865 0.2519649 -0.214603 0.07611269 -0.1395023 0.1264272 0.1824717 -0.2794277 -0.03968265 0.2901304 -0.06743879 0.2762837 0.5769017 -0.541319 0.2400753 0.2924744 -0.2158198 -0.2663437 -0.3041033 0.08251617 0.060438 0.1898921 -0.02940932 -0.07180347 0.1710895 -0.2961404 -0.06721046 -0.07090969 0.2045034 0.2138907 -0.04611026 0.02852749 0.243194 0.04478953 0.2161483 0.6178238 -0.4531875 0.18592 0.3561528 -0.3659846 -0.4043626 -0.2297214 0.1046073 0.04680686 0.1758409 -0.1492467 -0.1527446 0.1134003 -0.3575889 -0.1623747 -0.126492 0.3036727 0.1892212 -0.09583373 0.08287352 0.3612834 -0.05172029 0.3109129 0.7269949 -0.5592989 0.1405932 0.5086687 -0.39057 -0.298383 -0.4242195 0.1401116 0.1310247 0.2711453 -0.01673926 -0.1604441 0.446575 -0.3984415 -0.1316531 -0.04627086 0.3543772 0.4165133 0.1572869 0.2938481 0.4395721 -0.05301664 0.5397646 0.7847809 -0.8809339 0.4296972 0.6214529 -0.6012393 -0.1899322 -0.2969638 
  -0.3585517 -0.9033068 -0.2393115 -0.2140331 -0.3710438 -0.4898827 -0.1661287 0.3816964 0.09112648 -0.05740597 -0.1268504 0.1023511 0.01193068 0.05008147 0.2051286 0.06896985 -0.3061548 -0.7150003 0.7713228 0.2009336 -0.04011237 -0.5022559 -1.387609 0.1139934 -0.1744116 0.2895508 -0.02695589 0.07160079 -0.1457059 -0.1383878 0.1957326 -0.09911197 -0.01396589 -0.03605459 0.05824714 -0.01014254 -0.04844717 0.005245296 0.00477694 -0.3028497 -0.1788429 0.6901429 0.1216838 -0.01797368 -0.1043413 -1.084226 -0.03030729 -0.2753217 0.1464418 -0.2431663 0.1818891 -0.2351927 -0.0407422 0.2980796 -0.02714671 -0.01488955 -0.05065913 -0.1031408 0.08417072 -0.1026971 0.02005007 0.04202586 -0.2706051 -0.3066747 0.3741114 0.005541296 0.1627571 -0.2010352 -0.8939946 0.2161861 -0.1033097 0.02309606 -0.1663355 0.05803134 -0.06364966 -0.08981799 0.190636 -0.05212353 -0.06140323 -0.07055162 0.1247111 0.1069717 0.01510678 0.08488398 0.03420348 -0.03722786 -0.2143932 0.3531612 0.03949109 -0.03294764 -0.02647754 -0.6986692 0.333668 0.1152806 0.08624879 -0.01948726 -0.06176637 -0.2095658 -0.132965 0.1096164 0.1388161 -0.02671902 -0.09068631 -0.05570582 0.1104974 0.06981308 0.1124364 0.0947232 -0.06456929 -0.1992972 0.3891945 -0.1826945 0.1410962 -0.09286884 -0.8134464 0.175067 0.09224012 0.1716967 0.01209827 -0.05145242 -0.1326085 -0.09758042 0.110687 0.001219484 0.02302699 -0.2167143 -0.0107773 0.2864854 0.0345141 0.1427013 0.03526565 -0.07758669 -0.1372017 0.3142784 0.00529047 -0.02877601 -0.2599365 -0.8848316 0.1284892 -0.02158464 0.1014095 -0.07606879 -0.03582279 -0.2398929 -0.1239465 0.08290514 0.0008320232 -0.03944596 -0.1354108 -0.023819 0.1257048 0.01610827 0.06088383 0.05500326 0.003366894 -0.1047373 0.04128662 -0.1749483 0.1079212 -0.1362434 -0.9013474 0.01594461 -0.1841696 -0.0007813702 0.06014495 -0.1189926 -0.1243838 -0.05498552 0.1100351 -0.001786254 -0.05287775 -0.1783729 -0.05425806 0.1977964 -0.1486783 0.06867725 -0.008461513 -0.09593912 -0.1261447 0.2523095 -0.2291943 0.05526029 -0.2367007 -0.6407732 0.1296049 0.09566177 0.03420117 0.04739872 -0.09518184 -0.03306516 -0.1058813 0.2447413 -0.02255549 -0.03054905 -0.1469269 0.07521707 0.183956 0.03080936 0.1594236 -0.03266199 0.08485125 0.00400519 0.1762587 -0.06101527 0.1853491 0.1251189 -0.6032779 0.1374908 0.1015082 0.01177955 -0.05244679 -0.1809243 -0.1411188 -0.1065066 0.003308855 -0.1536126 0.0661177 -0.2297784 0.04984502 0.1301259 -0.06662356 0.1010155 -0.01317722 -0.04055249 -0.04158785 0.09932654 -0.0361779 0.2266559 -0.06609254 -0.408452 0.3003476 -0.04238575 0.05817025 0.1218616 -0.1825535 -0.005854835 -0.1275251 0.190836 -0.140261 -0.04976401 -0.1364269 0.1714543 0.07135252 0.05026374 0.08193944 -0.03103391 -0.08994353 -0.1454725 0.2719948 0.0005085043 0.2587102 0.1815401 -0.586437 0.02565182 0.1542654 -0.190196 -0.01727664 0.01211735 -0.1423671 -0.02562918 0.1565869 -0.05043498 0.03390134 -0.1605242 0.06963045 0.03397715 -0.1308974 0.1249894 -0.2032576 0.02360336 -0.2432777 0.2546853 -0.009283181 0.2101755 -0.06771275 -0.5809069 0.01500047 0.01183606 -0.1023618 0.02586678 -0.04848029 0.01424511 0.03630783 0.1001659 -0.2163826 0.06260941 -0.1963919 0.1628078 0.04528466 -0.09898482 0.1377721 -0.1405077 0.1100549 -0.1745932 0.1166491 -0.01464776 0.1905425 0.2515538 -0.4588999 0.4301908 0.01020761 -0.2534207 -0.05186991 -0.0162823 -0.1211221 -0.00535894 0.1978632 -0.3724342 0.04696329 0.04093334 0.1641278 -0.05999384 0.02343038 0.1235017 -0.08476671 0.09620149 -0.1103936 -0.006780564 0.05822708 0.1325412 0.1635241 -0.2937374 0.393631 0.1979509 -0.0609219 -0.04863212 0.02293212 0.005652615 0.06548117 0.3063111 -0.04502076 -0.003203587 -0.2031427 0.2557873 -0.001365861 0.01384269 0.02631466 -0.1503378 0.06072955 -0.06827121 0.04905601 0.1333837 0.3046978 0.370084 -0.4512309 0.3286401 -0.308399 -0.3309333 -0.4168465 -0.622995 -0.4755513 -0.1102504 0.1659176 -0.1318092 0.02514795 -0.08386505 0.07446516 0.1244763 -0.1056651 0.3760758 0.08481742 0.3124777 -0.2461399 -0.0477248 0.1912637 0.01274377 0.2050332 -0.8520381 
  -0.05919751 0.4710951 0.1836629 0.1928227 0.6177719 0.4622904 0.2413685 -0.01950755 -0.2969961 -0.267339 -0.4712215 0.02681579 0.01705059 -0.142822 -0.2218402 -0.04674456 -0.053624 -0.2262723 0.2457769 0.2271322 -0.007260385 -0.426496 -0.3331836 -0.2591993 0.04277364 0.03762497 0.1904269 0.5407085 0.09849357 0.1816951 -0.184633 -0.1486277 -0.06216323 -0.1967264 0.0705258 0.162837 -0.06112092 -0.1124544 -0.07323655 -0.0136804 0.005904177 0.1691083 -0.04069617 0.006141783 -0.4779387 0.06101077 -0.3242674 0.1337549 0.09017956 0.06508933 0.518626 0.220503 0.08532792 -0.08638106 -0.1687498 0.2219331 -0.289727 0.2821329 0.06869279 -0.05126655 -0.1401669 -0.1449306 -0.1844202 0.04340841 -0.07645043 -0.01128004 -0.04722235 -0.364783 -0.2582709 -0.07797317 -0.007112049 -0.1489525 0.03149185 0.5105477 0.2424909 0.2338896 -0.09548565 -0.1541895 0.1762875 0.08557337 0.1966299 -0.02337509 -0.1250196 -0.2088131 0.03283677 -0.2356439 -0.2362809 0.05545185 -0.07455312 -0.04027963 -0.2490282 -0.3110243 0.1952886 0.1625438 -0.1966979 -0.1574181 0.3756177 0.1991177 0.1779889 -0.2938168 0.01299067 0.3680307 -0.06631707 0.2648134 -0.06014076 -0.1228991 0.0007658839 0.002780888 -0.1572448 0.06831763 0.09456494 0.03773891 -0.009388584 -0.1211426 0.03140792 0.3752554 0.2981345 -0.1036071 -0.1475349 0.003573423 0.00431998 -0.08911604 -0.2781374 -0.08673764 0.3799556 0.0007927655 0.1935645 -0.02295886 -0.120524 -0.09923156 -0.04494948 -0.2224139 0.09064398 -0.03406424 -0.07000553 0.08594232 -0.1574305 0.0516877 0.3699225 0.5127993 -0.119655 -0.2380548 -0.4240328 -0.3704485 -0.2543323 -0.5300279 -0.1143957 0.2269957 -0.1559622 -0.015938 -0.2509232 -0.1905877 -0.2464592 -0.1745829 -0.2963606 0.06185867 -0.05599257 -0.2053619 -0.1121977 -0.185124 -0.009609982 0.2995937 0.2424963 -0.3266349 -0.4363991 -0.8958769 -0.7291641 -0.4028071 -0.4526131 0.01373024 0.2224315 -0.2801554 -0.077316 -0.1400275 -0.2788916 -0.2334589 -0.01078863 -0.4540795 0.3273201 -0.1420643 -0.0559437 0.07977696 -0.03726495 0.0692002 0.1408886 0.1651778 -0.302238 -0.3964227 -0.6880811 -0.8744032 -0.1383215 -0.12696 0.4328517 0.2489912 -0.4047638 0.1008471 -0.1089437 -0.03993482 -0.05273492 0.1832055 -0.2046378 0.5348066 0.08190337 0.3387624 0.4985487 0.3881999 0.5598052 0.1694803 0.3111695 -0.1432161 -0.08715647 -0.1762651 -0.2595305 0.340157 0.8983976 1.150048 0.8597185 0.1028417 0.5677136 0.6601816 0.5719264 0.6103607 0.8053235 0.2665239 0.9435523 0.5101268 0.590871 0.8306597 0.8124502 1.278846 0.5102163 -0.02242959 -0.6720129 -0.1375627 -0.4101151 -0.5521554 -0.0516205 0.4443335 0.8610454 0.6278397 -0.1592163 0.1351537 0.0662264 0.2895547 0.2208147 0.3082513 -0.2342638 0.1177197 -0.3802989 0.0809705 0.3284027 0.03204847 0.7094839 0.6760219 -0.44239 -1.388093 -0.4536081 -0.5154484 -0.8569907 -0.3557973 -0.06087044 0.5972079 0.2518771 -0.329164 -0.1073378 -0.1193842 0.1243769 0.2456708 0.2300619 -0.3213834 -0.09361669 -0.4326914 -0.1925244 0.1797861 -0.5254295 0.007341819 0.1657555 -0.7525026 -1.192466 -0.127792 -0.2437969 -0.8131065 -0.2691587 -0.1880315 0.5215887 0.4475147 -0.1932953 -0.04581189 -0.1403682 0.3978 0.221947 0.2772357 -0.3619009 0.04132126 -0.4465718 -0.4956705 -0.00969898 -0.2892234 -0.2144699 0.136798 -0.07452448 -0.3030442 0.7957162 0.1069544 -0.7838514 -0.02300137 -0.2180385 0.2362959 0.3093284 -0.2485028 -0.1387622 -0.06164663 0.3303351 0.2610362 0.07746369 -0.434127 0.07789573 -0.2401669 -0.1743159 0.04526682 -0.1525918 -0.1848995 -0.2091206 -0.3430332 -0.3123762 0.7844865 0.005598138 -0.6887947 0.4009613 -0.1278287 0.2458765 0.1844544 -0.2329217 -0.1013359 -0.04632918 0.338797 0.5051938 0.193371 -0.2996211 0.01512507 -0.07063252 -0.1211292 0.2915801 -0.03719008 -0.1287954 -0.1971446 -0.09672382 -0.02452106 0.6054357 -0.2185327 -0.5397972 0.6852205 0.1325357 0.8160068 0.2884281 -0.6785257 -0.2293161 -0.04197753 0.5580016 0.4206935 0.09309813 -0.4852962 -0.4034413 0.02824693 -0.2222292 0.1331331 -0.4082088 -0.3527515 
  -0.06969335 -0.1042389 -1.101316 0.1427952 0.06244129 0.2301129 1.266056 1.781901 2.218419 -0.3059923 -2.017252 -1.659597 -0.1054365 0.5540929 -0.330404 0.09436096 0.546643 -0.9041609 -0.003274654 0.03783591 -0.1268545 0.335088 -0.03726717 -0.04409066 -0.03495316 -0.3966843 0.1917173 -0.1229313 -0.1267016 0.8684837 0.8182459 1.499694 -1.312041 -2.347585 -1.06766 0.370845 0.9001397 -0.1323373 0.2140425 0.4914709 -0.5617196 -0.07023513 -0.05687779 -0.1044486 0.5348172 0.1995377 0.0467562 0.3309847 -0.2265027 0.2492638 -0.06831049 -0.2817979 0.8187567 0.8024173 1.50136 -1.21753 -2.169571 -1.138379 0.249979 0.8541307 -0.1008049 -0.001504582 0.2031128 -0.4067884 0.06626389 -0.1711667 -0.2131049 0.6029854 0.11917 0.02625559 0.3778642 -0.06476368 0.2751784 -0.02540296 -0.3013591 0.7220587 0.6120103 1.31822 -1.231771 -1.855123 -1.04468 0.04526147 0.883328 0.04252315 0.1290628 0.3369961 -0.2811477 0.1092293 -0.2961857 -0.3532407 0.4759752 0.1249177 0.1010738 0.3240083 0.09097383 0.228731 -0.06923053 -0.3301957 0.5232332 0.6145803 1.00916 -0.7414623 -1.352719 -1.007471 0.1222537 0.8169234 -0.1676391 0.2599863 0.2306581 -0.3409284 0.005594206 -0.2961612 -0.2544896 0.6024094 0.03977491 0.0003584404 0.3706874 0.2120277 0.1552342 0.1462015 -0.3005898 0.6347627 0.3307686 0.7224012 -0.238082 -1.016113 -0.9059454 -0.01981891 0.6518403 -0.02519096 0.1172019 -0.01341888 -0.26429 -0.004008298 -0.3280754 -0.3571886 0.5865651 0.03180494 -0.1823837 0.2174987 -0.001159609 0.2479823 0.348257 -0.08377934 0.4323467 0.1616891 0.3481973 0.136253 -0.4823228 -0.7134471 0.08925113 0.4228955 -0.1880693 0.07399168 0.157018 -0.3431621 0.1211614 -0.1367079 -0.3292086 0.525206 -0.1311447 -0.357707 0.3227675 -0.2752449 0.1691248 0.41097 -0.152088 0.4648744 0.04916298 0.008774247 0.4171416 -0.08660179 -0.613188 -0.06098079 0.3147628 -0.1697788 0.04723444 -0.09306386 -0.267762 0.2912992 -0.1168857 -0.3037862 0.3305896 -0.05174163 -0.3551549 0.3132733 -0.3454542 0.1631185 0.3801856 -0.1114397 0.2301585 0.01859406 0.04283487 0.3854508 0.1338511 -0.4097244 -0.05680331 0.1291403 -0.2236054 -0.02981314 0.02678385 -0.3594461 0.4162823 -0.006341109 -0.06743682 0.1229808 -0.3485896 -0.3794649 0.2942005 -0.4245661 0.1556529 0.2063844 -0.1316015 -0.0515351 0.02550113 0.0004051251 0.3552184 0.2367819 -0.2229452 0.06994328 0.08900484 -0.3051911 0.1140223 0.1011277 -0.3701338 0.513618 -0.05038939 -0.09988858 0.2239046 -0.2837675 -0.2674597 0.3806005 -0.4903968 0.05405498 0.03899717 -0.01916238 -0.03084468 0.09258023 0.06333372 0.2809416 0.2057929 -0.1933554 -0.05321472 -0.01692785 -0.215635 0.02641972 0.1878654 -0.4682167 0.3544935 0.05016033 -0.06994352 0.03591904 -0.2740197 -0.2374685 0.4307705 -0.4402742 -0.04323343 -0.048304 0.07836571 -0.2264987 0.06802507 0.185421 0.2710799 0.2432235 -0.1409841 0.06095446 -0.07629975 -0.04537341 0.1276321 0.2468993 -0.2727998 0.3777683 -0.0907542 0.0001557093 0.2408985 -0.3128854 -0.2328506 0.5651774 -0.3595423 0.04503545 -0.09703266 0.1823165 -0.2274536 -0.06323984 0.09453304 0.2964382 0.121829 -0.1417298 0.1534984 -0.0625473 -0.1565581 0.07596152 0.2596978 -0.1958057 0.4357666 -0.08570354 -0.09573989 0.1516574 -0.3550173 -0.1099274 0.3501945 -0.2771219 0.001011395 0.01362439 0.1600027 -0.1469777 -0.08030505 0.01759791 0.195068 0.1170349 -0.07664718 0.2250974 -0.2103913 -0.2364193 0.1489276 0.06608862 -0.19401 0.2222315 -0.05078695 -0.1766676 -0.01631318 -0.2627167 -0.0894258 0.2750633 -0.2502142 0.2325013 -0.005098353 0.2365265 -0.04997873 0.008497336 -0.1825013 0.05407156 -0.1111748 -0.07351932 0.2419515 -0.06389818 -0.2380418 0.08385256 -0.1176351 -0.00621017 0.2480206 -0.06830756 -0.3067317 0.07922268 -0.3673325 0.05291644 0.2329643 -0.22808 0.1831878 -0.1291592 -0.2970016 -0.3832288 -0.6742422 -0.5202594 0.08190306 0.3435764 0.24931 0.5484976 0.2147151 -0.2029648 0.03565451 0.1118799 -0.01858193 0.364158 -0.1394187 0.04222328 0.3751366 0.01295145 
  0.5338126 -0.05009318 -0.1074909 0.05133037 -0.4016899 -0.5012357 -0.1511234 -0.3102161 -0.6793936 0.01085665 -0.02345432 -0.1774432 -0.3577505 -0.3969404 -0.4434191 -0.2772284 -0.7207615 -0.6204514 -0.2237267 -0.5211856 -0.5970033 -0.4311538 -0.9780571 0.1940519 -0.1199551 -0.180005 0.112512 -0.3296278 -0.1466298 -0.1076173 -0.06077369 -0.1303618 0.03639605 0.1962048 0.08843949 0.05623351 -0.02304117 -0.1243342 0.3418137 -0.1451679 0.08262417 0.3143708 -0.002768412 -0.05757024 0.1290571 0.05274849 0.1537153 -0.1442396 -0.2465437 -0.4048211 -0.5024514 -0.2772098 -0.2131549 -0.1825887 -0.2164778 -0.2759276 0.01377941 -0.1898388 -0.1891544 -0.06618383 -0.1785551 0.06017818 -0.237474 -0.04392823 0.04030399 -0.1425953 -0.1941202 -0.0191639 -0.3782499 0.1105923 -0.04688731 -0.1721254 -0.3538518 -0.4526174 -0.2975884 -0.05685546 -0.1407356 -0.2483298 -0.2023422 0.1576589 -0.2049472 -0.08002586 0.06789324 -0.1374871 0.1436454 -0.05962669 0.01831374 0.2293188 -0.1784005 0.07502225 0.003777586 0.02927275 0.1023415 -0.1597482 -0.1168723 -0.3349334 -0.1961816 -0.06707348 -0.1198075 -0.2247051 -0.1960477 -0.08934445 0.1645412 -0.0704238 -0.07978874 -0.08050665 -0.1249954 0.2072515 -0.006015069 -0.000605677 0.1073135 0.008297477 -0.005710768 0.02735131 -0.05831805 -0.0804574 -0.1917901 -0.2093197 -0.1019632 0.08502521 -0.01545885 0.09077919 -0.1307101 -0.007397646 -0.1507661 0.0470749 -0.1816215 0.1030559 0.0972048 0.1292474 0.04395659 0.1316769 0.03332442 0.07237276 0.009270865 -0.02141414 0.1023674 -0.08889666 -0.2234599 -0.2424541 -0.117031 0.05177251 0.06243472 0.2417277 -0.06294027 0.05119272 -0.04933257 -0.0885472 -0.003947338 -0.08380041 0.1346499 0.03777287 -0.01873345 0.1948995 0.05793126 -0.04999483 0.1282029 -0.1221605 -0.1451341 0.1449342 -0.06050352 -0.05796937 0.004966389 -0.08030634 0.1367274 0.1159414 0.1851526 -0.01870701 0.09497346 0.04091381 0.09097528 0.005852156 0.1074577 0.1442748 0.1988325 -0.1194193 0.117352 0.002796103 -0.07841756 0.008568876 0.05191727 -0.01748494 -0.06154229 -0.08608891 -0.03578359 0.05252037 0.004296518 0.1575339 0.04741449 -0.01707855 0.04894663 0.0562425 0.1374092 -0.05902224 -0.001099967 0.06509158 0.1316331 0.05350785 0.02217928 0.09329749 0.03652199 -0.06780653 0.03194473 -0.04701206 0.002169404 0.01986297 0.0281187 -0.1807877 -0.1852222 -0.0639692 0.1267577 -0.07889548 -0.02794008 -0.006100008 0.02523559 -0.0290378 -0.1133473 -0.1428313 -0.01442434 0.05499364 0.08475742 -0.1668624 0.006760999 0.002659627 -0.1351243 0.0271262 0.06549413 -0.1715697 0.07733864 -0.1109914 -0.04155031 -0.0756743 -0.07724532 -0.03543982 -0.0773063 -0.03450139 -0.03465123 -0.09334946 0.09987871 -0.08969583 -0.1354899 -0.1321455 0.04136044 0.1189583 -0.1113356 -0.05969144 0.05020677 0.05410429 -0.1551079 0.2226789 0.1295905 0.0407677 0.03870047 0.008002264 0.05119472 -0.1355119 0.04574217 -0.04943466 0.06327205 0.1233172 0.1276478 0.1910535 -0.09231189 0.06655916 -0.158375 0.03209673 0.164421 0.03114718 0.03890681 0.1074624 0.09279998 -0.05230049 0.147209 0.04026162 0.05365243 0.063758 -0.0724854 0.277418 -0.1350287 0.1344703 -0.02841368 0.3144985 0.2032123 0.06525996 0.193498 -0.0624482 -0.001473777 -0.1230481 -0.02421949 0.06981945 -0.1056395 0.04132565 0.03019164 0.06380137 -0.09789436 0.1318713 0.1041392 -0.1881451 0.08868092 -0.05504947 0.2855911 0.2417312 0.4415293 0.3158893 0.3613403 0.2158289 -0.04591211 0.164041 -0.1040903 -0.05547821 -0.1560216 -0.09798382 0.2080945 -0.03669574 0.1163466 -0.04803102 0.1059684 -0.01587647 0.005604985 0.1152556 -0.01888454 0.2205259 -0.405398 0.2778313 -0.1700893 0.292526 0.2850219 0.4147027 0.24222 0.1133167 0.07922521 0.05399404 -0.1764516 -0.08517546 -0.1081025 0.1885695 -0.001675733 0.1706843 -0.2246221 0.3284816 -0.1679346 -0.1349735 -0.08259316 -0.1729213 0.2263252 0.2835199 0.8685176 0.2564977 0.8165529 0.7926431 0.4557768 0.3742885 0.3216466 0.3748851 0.3447415 0.3018756 0.386512 0.3891514 0.5621286 0.2415488 0.3594407 0.09081382 0.6448525 -0.1698464 0.2728299 0.4610645 0.4716189 1.296124 
  -0.186802 -0.2908265 -0.1079207 0.1623388 -0.09823388 0.1837145 -0.2734086 -0.4557799 -0.5382072 0.007645119 0.3892039 0.5618762 0.1444684 -0.5051455 0.3692623 0.4178945 0.09261633 0.1528746 0.04358439 -0.09900425 -0.162804 -0.1729763 0.2686965 -0.08769066 -0.1507673 -0.04072031 0.3311603 -0.09377431 0.1576877 -0.23183 -0.3814265 -0.4492067 -0.2545897 -0.3678715 0.05697213 0.2008536 -0.2126869 0.4514505 0.5417894 0.1704128 0.4074849 0.1072258 -0.02884724 0.002586671 0.02803398 0.437227 0.1492593 0.01691743 0.1964041 0.2671972 -0.01372774 0.1333477 -0.1911954 -0.3554399 -0.3392299 -0.267212 -0.8638989 -0.3677765 0.2444724 -0.2498282 0.5541793 0.3439313 0.2462164 0.3133073 -0.2609619 -0.03437977 -0.1557359 -0.07314388 0.1492296 0.1862379 0.03196168 0.1528967 0.2754782 0.08518596 0.08342133 -0.238086 -0.215864 -0.2353285 -0.3235706 -1.126619 -0.6027737 0.2434176 -0.082555 0.6503226 0.4004217 0.4605075 0.4701431 0.03205414 -0.02514584 0.01125703 -0.07701509 0.2851182 0.2034756 0.02544808 0.2001599 0.3519255 0.01772459 0.1592958 -0.2330775 -0.2159713 -0.2368803 -0.3471426 -1.450992 -0.8963594 0.4533911 -0.06987769 0.8216807 0.4892272 0.5684438 0.4196295 -0.03419638 -0.02372648 0.006235363 -0.07907163 0.221863 0.2436157 0.01115495 0.2347631 0.3631198 0.09797253 0.1469102 -0.2886185 -0.2862716 -0.1444772 -0.4413496 -1.464388 -0.8991632 0.5322458 -3.88555e-05 0.6249997 0.5947853 0.4916984 0.5253932 -0.03018172 -0.1553494 -0.1678074 -0.1899375 0.3167603 0.1711833 0.1175573 0.2863964 0.3850949 0.1836546 -0.07235774 -0.1313185 -0.2024348 -0.2910537 -0.4217065 -1.28524 -0.7806107 0.6502614 0.02888291 0.6921907 0.5189695 0.3919428 0.425031 -0.1538956 -0.1331033 -0.1858428 -0.1334841 0.2489476 0.1325255 0.157307 0.2669345 0.3676037 0.32311 -0.1203569 -0.02941998 -0.284095 -0.2061296 -0.380823 -1.186038 -0.5488261 0.6075602 0.09288968 0.5891867 0.3609418 0.368584 0.267264 -0.1696018 -0.1978877 -0.1238568 -0.1282101 0.1683083 0.1140635 0.1165329 0.1879786 0.3840636 0.05283969 -0.03365016 -0.06482991 -0.1141892 -0.2900713 -0.2989951 -0.9314849 -0.3168297 0.693571 0.08241121 0.3678786 0.2786565 0.319252 0.1534645 -0.1176933 -0.07553638 -0.1627876 0.02283036 0.1642517 -0.1193054 0.008451764 0.01455491 0.2144023 0.1554316 -0.007513475 0.02261124 -0.0340689 -0.2271801 -0.2274569 -0.7017543 -0.03911426 0.5480266 -0.03449154 0.3048127 -0.005392931 0.2712198 0.08147942 -0.1337585 -0.01341837 0.08383043 0.08674385 0.08121798 -0.1674968 0.3215257 -0.09778972 0.2409346 -0.06717855 -0.01452712 -0.08589976 -0.04227543 -0.2726631 -0.2420302 -0.377339 -0.05498799 0.4021626 0.08032902 0.2163773 -0.1623072 0.08535932 -0.1453122 0.07479187 0.1718515 0.01986513 -0.1510539 0.04714276 -0.06911694 0.3687253 -0.157328 -0.05697059 -0.0109247 0.2115079 0.07122751 0.197336 -0.3345162 -0.2490093 -0.1841287 0.1678519 0.1660602 0.09376829 0.1026208 -0.299001 0.0719821 -0.1417737 -0.002920477 0.0720297 0.1367461 -0.07526707 0.05607166 -0.1041311 0.3333983 -0.2149777 -0.1774667 -0.00105481 0.2680196 0.1537964 0.2195596 -0.2358474 -0.2344168 0.05673817 0.1610464 0.1279012 0.2624407 0.03171538 -0.3009724 -0.02627284 -0.3840884 0.1685647 0.2717667 0.01563172 -0.04887782 0.07833215 -0.2283787 0.3079229 -0.09372787 -0.09576079 0.1299623 0.1037862 0.2338675 0.1634022 -0.09334453 -0.1526495 0.07387997 0.5036524 0.0597109 0.3089471 -0.01492437 -0.3533137 0.1236409 -0.3610282 0.04416858 0.08957117 0.003781119 -0.02549334 0.02788332 -0.1082487 0.3257124 -0.1143563 -0.1163445 0.09551723 0.1527925 0.2093787 0.1469626 -0.1804629 -0.2772752 0.1897315 0.4596232 0.1123298 0.2165465 -0.1263917 -0.4484205 0.05025568 -0.3953013 0.1287106 0.1786799 0.1515771 0.1461633 0.262996 -0.15455 0.3868831 -0.128132 -0.6276488 -0.3898262 -0.08979844 0.2864483 0.1309078 -0.07868891 0.1130098 0.75143 0.8024896 0.3347317 -0.06600133 -0.6730255 -0.8957568 -0.4508784 -1.248894 -0.04326767 -0.1095506 -0.03778644 -0.1191627 0.2878248 
  -0.2228692 -0.1139893 -0.1497533 0.2127726 0.06647462 -0.3469834 0.1548905 0.1423449 0.3971404 0.3384698 -0.2196632 -0.5068772 -0.4158871 -0.1179726 0.1533589 -0.09911098 0.1749963 0.2684572 0.001163253 0.1619295 -0.2311825 0.1771422 0.5070257 -0.02895712 0.02812373 -0.1523032 0.113395 -0.04313461 -0.1550357 0.0923734 -0.06303734 -0.01948998 0.1449788 0.1930868 0.009739431 -0.2373184 0.1142167 0.01754232 -0.1137016 -0.0004227599 -0.0031031 0.0151941 0.1942466 -0.3578681 0.08913676 0.0749741 0.1611356 0.1107093 0.04128087 -0.06651393 -0.06051698 -0.2334796 -0.008880045 -0.04141565 0.04251993 0.1110059 0.04466976 -0.2788761 -0.1234015 0.06359562 0.2705305 -0.09984504 -0.1436699 0.2057234 -0.1527262 0.1806133 -0.119111 0.06631192 0.1209596 0.3781933 0.02969438 0.1785052 -0.06846559 -0.08118857 -0.2551229 0.01420302 0.1234897 -0.01049272 0.04266959 0.1473437 -0.2057978 -0.3639852 0.1920717 0.2657647 -0.06674702 -0.1074983 0.1986251 -0.2166938 0.02538618 -0.04748594 0.01994924 0.07859897 0.1561947 -0.1192134 0.166478 0.064206 -0.1646352 -0.1003715 -0.1197137 0.1887465 0.1541595 -0.009007291 0.202109 -0.1740631 -0.408542 0.2940368 0.1617801 -0.01850827 -0.2819891 -0.01198161 -0.2931404 0.05379693 -0.1168717 0.1392325 0.1536274 0.1417561 -0.1188561 0.1708491 -0.1586925 -0.1348062 -0.1180579 0.1390244 0.07391369 0.1843707 0.003816046 0.2808307 -0.2206613 -0.6047577 0.2314539 0.1142429 -0.05225736 -0.1185597 0.1486885 -0.2518217 0.01881038 -0.1422022 0.07764231 0.1754051 0.1343893 0.007098655 0.1780396 -0.359132 -0.06627562 -0.1210044 0.1413487 0.2207252 0.2325581 0.214545 0.3396555 -0.146367 -0.4813633 0.230443 -0.1980784 -0.2192461 0.1154389 0.06783216 -0.2232634 0.1794341 -0.2522785 0.1860029 0.105858 0.1078523 0.1091748 0.1962695 -0.55024 -0.1109346 -0.03325325 0.07972911 0.1986818 0.2697164 0.3591394 0.2657244 -0.1246437 -0.3875185 0.1841354 -0.469587 -0.4229442 0.006156395 -0.0747949 -0.06163826 0.1914937 -0.1009801 0.08618872 0.2158588 0.1398848 -0.0503222 0.1388037 -0.4722064 -0.1140871 0.1146966 0.1251216 0.2517862 0.315411 0.4662638 0.4272526 0.2511395 -0.4149176 0.04261063 -0.5091778 -0.7128521 -0.1067712 -0.3096089 -0.1561726 0.341061 -0.2343411 -0.009092905 0.005575255 0.2749377 -0.311325 0.1423137 -0.4123761 0.2260678 0.05268054 0.06573147 0.2701311 0.2839729 0.7948032 0.5881155 0.2619358 -0.02076454 0.03267616 -0.5940793 -0.869758 -0.353409 -0.4484676 -0.1356481 0.5203162 -0.3837046 -0.1549431 -0.2678847 0.1985054 -0.5321788 -0.05349123 -0.2937193 0.226979 0.2563008 -0.03275844 0.2438165 0.1671441 0.7510884 0.7311435 0.4901285 0.1798729 -0.04399302 -0.4785558 -0.6235462 -0.4315836 -0.3863617 -0.1613267 0.3521934 -0.2367064 -0.02471902 -0.3492592 -0.1386331 -0.5069266 0.05179576 -0.01649411 0.4561412 0.33449 0.2566214 0.2931081 -0.09911785 0.9170458 0.9815203 0.4695831 0.3189611 -0.01752161 -0.4635708 -0.65208 0.002098842 -0.4429002 -0.3308226 0.3888912 -0.464224 -0.3632497 -0.4023969 -0.2834504 -0.6389169 -0.1628631 -0.1185232 0.3403459 0.3261548 0.2212393 0.239761 -0.3212909 0.1704946 1.036983 0.7110292 0.2530302 -0.08640719 0.04711182 -0.264019 -0.1861325 -0.2149876 -0.1042311 0.5279811 -0.4140931 -0.2571504 -0.4006063 -0.2364652 -0.2613459 0.05088783 -0.2748935 0.1713901 -0.01807515 0.1179402 0.04590899 -0.7871388 -1.134948 0.4902757 0.5884133 0.2743488 -0.3300721 0.694537 0.1137399 0.06227291 0.1653053 0.1041588 0.440962 0.01376299 -0.06896407 -0.002497202 -0.1208265 -0.1822702 -0.09962543 -0.2374581 0.03749888 -0.1336558 0.2274997 0.07868209 -0.6079061 -1.560112 -0.3454077 1.011378 0.1868822 -0.2955347 0.7090988 0.3419935 -0.2033822 0.5152728 0.1073259 0.2633655 -0.1618002 -0.2263461 0.1746135 1.110036 1.313169 1.009228 1.209216 0.3626816 -0.8035632 -0.9837799 -1.664951 -2.992711 -4.245076 -2.551784 0.5287015 1.097225 0.1512855 2.636238 1.391861 0.6857625 1.248827 0.3868379 -0.1119311 -0.2360761 0.4660826 1.24486 
